#mdl#2#862
#rdr#111/32/0
12:u00:%x[-4,0],
12:u01:%x[-3,0],
12:u02:%x[-2,0],
12:u03:%x[-1,0],
11:u04:%x[0,0],
11:u05:%x[1,0],
11:u06:%x[2,0],
11:u07:%x[3,0],
11:u08:%x[4,0],
11:u08:%x[5,0],
12:u00:%x[-4,1],
12:u01:%x[-3,1],
12:u02:%x[-2,1],
12:u03:%x[-1,1],
11:u04:%x[0,1],
11:u05:%x[1,1],
11:u06:%x[2,1],
11:u07:%x[3,1],
11:u08:%x[4,1],
12:u10:%x[-2,2],
12:u11:%x[-1,2],
11:u12:%x[0,2],
11:u13:%x[1,2],
11:u14:%x[2,2],
11:u20:%x[0,3],
11:u21:%x[0,4],
11:u22:%x[0,5],
11:u23:%x[0,6],
12:u40:%x[-1,7],
11:u41:%x[0,7],
11:u42:%x[1,7],
12:u60:%x[-1,8],
11:u61:%x[0,8],
11:u62:%x[1,8],
12:u70:%x[-1,9],
11:u71:%x[0,9],
11:u72:%x[1,9],
13:u80:%x[-1,10],
12:u81:%x[0,10],
12:u82:%x[1,10],
13:u90:%x[-1,11],
12:u91:%x[0,11],
12:u92:%x[1,11],
13:uA0:%x[-1,12],
12:uA1:%x[0,12],
12:uA2:%x[1,12],
12:uB0:%x[0,13],
12:uB1:%x[1,13],
13:uB2:%x[-1,13],
12:uC0:%x[0,14],
13:uC1:%x[-1,14],
12:uC2:%x[1,14],
12:uD0:%x[0,15],
13:uD1:%x[-1,15],
12:uD2:%x[1,15],
12:uE0:%x[0,16],
12:uE1:%x[0,17],
12:uE2:%x[0,18],
12:uE3:%x[0,19],
12:uE4:%x[0,20],
12:uE5:%x[0,21],
12:uE6:%x[0,22],
12:uEI:%x[1,16],
12:uEJ:%x[1,17],
12:uEK:%x[1,18],
12:uEL:%x[1,19],
12:uEM:%x[1,20],
12:uEN:%x[1,21],
12:uEO:%x[1,22],
13:uG0:%x[-1,23],
12:uG1:%x[0,23],
12:uG2:%x[1,23],
13:uH0:%x[-1,24],
12:uH1:%x[0,24],
12:uH2:%x[1,24],
13:uI0:%x[-1,25],
12:uI1:%x[0,25],
12:uI2:%x[1,25],
13:uI0:%x[-1,26],
12:uI1:%x[0,26],
12:uI2:%x[1,26],
13:uI0:%x[-1,27],
12:uI1:%x[0,27],
12:uI2:%x[1,27],
13:uG0:%x[-2,28],
13:uG1:%x[-1,28],
12:uG2:%x[0,28],
12:uG3:%x[1,28],
12:uG4:%x[2,28],
12:uG5:%x[3,28],
13:uG0:%x[-2,29],
13:uG1:%x[-1,29],
12:uG2:%x[0,29],
12:uG3:%x[1,29],
12:uG4:%x[2,29],
12:uG5:%x[3,29],
13:uH0:%x[-2,30],
13:uH1:%x[-1,30],
12:uH2:%x[0,30],
12:uH3:%x[1,30],
12:uH4:%x[2,30],
12:uH5:%x[3,30],
13:uI1:%x[-1,31],
12:uI2:%x[0,31],
12:uI3:%x[1,31],
13:uJ1:%x[-2,32],
13:uJ1:%x[-1,32],
12:uJ2:%x[0,32],
12:uJ3:%x[1,32],
12:uJ3:%x[1,32],
1:b,
#qrk#9
10:I-<header>,
8:<header>,
12:I-<headnote>,
8:I-<page>,
6:<page>,
8:I-<body>,
6:<body>,
12:I-<footnote>,
10:<footnote>,
#qrk#94165
8:u00:_x-4,
8:u01:_x-3,
8:u02:_x-2,
8:u03:_x-1,
12:u04:CS(COMM),
8:u05:Page,
6:u06:$~,
5:u07:*,
6:u08:IN,
12:u08:Reserved,
11:u04:69/2021,
5:u05:1,
7:u08:THE,
8:u10:_x-2,
8:u11:_x-1,
12:u12:cs(comm),
8:u13:page,
6:u14:$~,
5:u20:C,
6:u21:CS,
7:u22:CS(,
8:u23:CS(C,
8:u40:_x-1,
14:u41:BLOCKSTART,
14:u42:BLOCKSTART,
8:u60:_x-1,
13:u61:PAGESTART,
10:u62:PAGEIN,
8:u70:_x-1,
11:u71:NEWFONT,
12:u72:SAMEFONT,
8:u80:_x-1,
14:u81:HIGHERFONT,
16:u82:SAMEFONTSIZE,
8:u90:_x-1,
5:u91:0,
5:u92:0,
8:uA0:_x-1,
5:uA1:0,
5:uA2:0,
10:uB0:ALLCAP,
11:uB1:INITCAP,
8:uB2:_x-1,
11:uC0:NODIGIT,
8:uC1:_x-1,
11:uC2:NODIGIT,
5:uD0:0,
8:uD1:_x-1,
5:uD2:0,
5:uE0:0,
5:uE1:0,
5:uE2:0,
5:uE3:0,
5:uE4:0,
5:uE5:0,
5:uE6:0,
5:uEI:1,
5:uEJ:1,
5:uEK:0,
5:uEL:0,
5:uEM:0,
5:uEN:0,
5:uEO:0,
8:uG0:_x-1,
5:uG1:0,
5:uG2:0,
8:uH0:_x-1,
5:uH1:0,
5:uH2:0,
8:uI0:_x-1,
10:uI1:()/()/,
6:uI2:no,
5:uI1:6,
5:uI2:0,
6:uI1:10,
6:uI2:10,
8:uG0:_x-2,
8:uG1:_x-1,
5:uG3:0,
5:uG4:0,
5:uG5:0,
5:uG2:1,
5:uG3:1,
8:uH0:_x-2,
8:uH1:_x-1,
5:uH2:1,
5:uH3:0,
5:uH4:0,
5:uH5:0,
8:uI1:_x-1,
5:uI2:1,
5:uI3:0,
8:uJ1:_x-2,
8:uJ1:_x-1,
5:uJ2:0,
5:uJ3:0,
1:b,
8:u00:_x-3,
8:u01:_x-2,
8:u02:_x-1,
12:u03:CS(COMM),
8:u04:Page,
6:u05:$~,
5:u06:*,
6:u07:IN,
14:u08:Pronounced,
11:u03:69/2021,
5:u04:1,
7:u07:THE,
6:u08:on,
8:u10:_x-1,
12:u11:cs(comm),
8:u12:page,
6:u13:$~,
5:u14:*,
5:u20:P,
6:u21:Pa,
7:u22:Pag,
8:u23:Page,
14:u40:BLOCKSTART,
13:u60:PAGESTART,
10:u61:PAGEIN,
11:u70:NEWFONT,
12:u71:SAMEFONT,
11:u72:NEWFONT,
14:u80:HIGHERFONT,
16:u81:SAMEFONTSIZE,
14:u82:HIGHERFONT,
5:u90:0,
5:uA0:0,
11:uB0:INITCAP,
10:uB1:ALLCAP,
10:uB2:ALLCAP,
11:uC1:NODIGIT,
5:uD1:0,
5:uE0:1,
5:uE1:1,
5:uEI:0,
5:uEJ:0,
5:uG0:0,
5:uH0:0,
10:uI0:()/()/,
6:uI1:no,
5:uI2:$,
5:uI0:6,
5:uI1:0,
6:uI0:10,
5:uG1:1,
5:uH1:1,
5:uI1:1,
5:uJ1:0,
5:uJ3:1,
8:u00:_x-2,
8:u01:_x-1,
12:u02:CS(COMM),
8:u03:Page,
6:u04:$~,
5:u05:*,
6:u06:IN,
12:u07:Reserved,
8:u08:I.A.,
11:u02:69/2021,
5:u03:1,
7:u06:THE,
6:u07:on,
12:u10:cs(comm),
8:u11:page,
6:u12:$~,
5:u13:*,
6:u14:in,
5:u20:$,
6:u21:$~,
6:u22:$~,
6:u23:$~,
10:u60:PAGEIN,
12:u70:SAMEFONT,
16:u80:SAMEFONTSIZE,
11:uB2:INITCAP,
5:uD2:1,
6:uI0:no,
5:uI1:$,
5:uI2:*,
5:uI0:0,
5:uG0:1,
5:uH0:1,
5:uJ2:1,
8:u00:_x-1,
12:u01:CS(COMM),
8:u02:Page,
6:u03:$~,
5:u04:*,
6:u05:IN,
12:u06:Reserved,
14:u07:Pronounced,
5:u08:+,
11:u01:69/2021,
5:u02:1,
7:u05:THE,
6:u06:on,
13:u08:2084/2021,
8:u10:page,
6:u11:$~,
5:u12:*,
6:u13:in,
12:u14:reserved,
5:u20:*,
5:u21:*,
5:u22:*,
5:u23:*,
12:u42:BLOCKEND,
5:uD0:1,
5:uI0:$,
5:uI1:*,
5:uI0:1,
5:uJ1:1,
12:u00:CS(COMM),
8:u01:Page,
6:u02:$~,
5:u03:*,
6:u04:IN,
12:u05:Reserved,
14:u06:Pronounced,
8:u07:I.A.,
12:u08:CS(COMM),
11:u00:69/2021,
5:u01:1,
7:u04:THE,
6:u05:on,
13:u07:2084/2021,
6:u10:$~,
5:u11:*,
6:u12:in,
12:u13:reserved,
14:u14:pronounced,
5:u20:I,
6:u21:IN,
6:u22:IN,
6:u23:IN,
12:u41:BLOCKEND,
5:u92:1,
5:uA2:1,
5:uD1:1,
5:uI0:*,
5:uI2:,,
8:u00:Page,
6:u01:$~,
5:u02:*,
6:u03:IN,
12:u04:Reserved,
14:u05:Pronounced,
8:u06:I.A.,
5:u07:+,
7:u08:FMC,
5:u00:1,
7:u03:THE,
6:u04:on,
13:u06:2084/2021,
11:u08:69/2021,
5:u10:*,
6:u11:in,
12:u12:reserved,
14:u13:pronounced,
8:u14:i.a.,
5:u20:R,
6:u21:Re,
7:u22:Res,
8:u23:Rese,
12:u40:BLOCKEND,
5:u91:1,
5:uA1:1,
5:uI1:,,
6:u00:$~,
5:u01:*,
6:u02:IN,
12:u03:Reserved,
14:u04:Pronounced,
8:u05:I.A.,
5:u06:+,
12:u07:CS(COMM),
9:u08:.....,
7:u02:THE,
6:u03:on,
13:u05:2084/2021,
11:u07:69/2021,
15:u08:CORPORATION,
6:u10:in,
12:u11:reserved,
14:u12:pronounced,
8:u13:i.a.,
5:u14:+,
6:u21:Pr,
7:u22:Pro,
8:u23:Pron,
5:u90:1,
5:uA0:1,
5:uI0:,,
7:uI2:../,
5:uI2:3,
5:u00:*,
6:u01:IN,
12:u02:Reserved,
14:u03:Pronounced,
8:u04:I.A.,
5:u05:+,
12:u06:CS(COMM),
7:u07:FMC,
12:u08:Through:,
7:u01:THE,
6:u02:on,
13:u04:2084/2021,
11:u06:69/2021,
15:u07:CORPORATION,
14:u08:Plaintiffs,
12:u10:reserved,
14:u11:pronounced,
8:u12:i.a.,
5:u13:+,
12:u14:cs(comm),
6:u21:I.,
7:u22:I.A,
8:u23:I.A.,
7:uI1:../,
5:uI1:3,
6:u00:IN,
12:u01:Reserved,
14:u02:Pronounced,
8:u03:I.A.,
5:u04:+,
12:u05:CS(COMM),
7:u06:FMC,
9:u07:.....,
8:u08:with,
7:u00:THE,
6:u01:on,
13:u03:2084/2021,
11:u05:69/2021,
15:u06:CORPORATION,
14:u07:Plaintiffs,
7:u08:Mr.,
14:u10:pronounced,
8:u11:i.a.,
5:u12:+,
12:u13:cs(comm),
7:u14:fmc,
5:u20:+,
5:u21:+,
5:u22:+,
5:u23:+,
7:uI0:../,
7:uI2:()/,
5:uI0:3,
12:u00:Reserved,
14:u01:Pronounced,
8:u02:I.A.,
5:u03:+,
7:u05:FMC,
9:u06:.....,
12:u07:Through:,
12:u08:Sawhney,,
6:u00:on,
13:u02:2084/2021,
15:u05:CORPORATION,
14:u06:Plaintiffs,
7:u07:Mr.,
8:u10:i.a.,
5:u11:+,
7:u13:fmc,
9:u14:.....,
7:uI1:()/,
5:uI2:.,
5:uI2:6,
14:u00:Pronounced,
8:u01:I.A.,
5:u02:+,
7:u04:FMC,
9:u05:.....,
12:u06:Through:,
8:u07:with,
11:u08:Harshit,
13:u01:2084/2021,
15:u04:CORPORATION,
14:u05:Plaintiffs,
7:u06:Mr.,
5:u10:+,
7:u12:fmc,
9:u13:.....,
12:u14:through:,
5:u20:F,
6:u21:FM,
7:u22:FMC,
7:u23:FMC,
11:u42:BLOCKIN,
7:uI0:()/,
5:uI1:.,
9:uI2:.....,
5:uI2:5,
5:uI2:4,
8:u00:I.A.,
5:u01:+,
7:u03:FMC,
9:u04:.....,
12:u05:Through:,
8:u06:with,
12:u07:Sawhney,,
9:u08:Advs.,
13:u00:2084/2021,
15:u03:CORPORATION,
14:u04:Plaintiffs,
7:u05:Mr.,
9:u08:Dixit,
7:u11:fmc,
9:u12:.....,
12:u13:through:,
8:u14:with,
5:u20:.,
6:u21:..,
7:u22:...,
8:u23:....,
11:u41:BLOCKIN,
5:uI0:.,
9:uI1:.....,
9:uI2::.,..,
5:uI1:5,
5:uI1:4,
5:uI2:9,
5:u00:+,
7:u02:FMC,
9:u03:.....,
12:u04:Through:,
8:u05:with,
12:u06:Sawhney,,
11:u07:Harshit,
10:u08:versus,
15:u02:CORPORATION,
14:u03:Plaintiffs,
7:u04:Mr.,
9:u07:Dixit,
7:u10:fmc,
9:u11:.....,
12:u12:through:,
8:u13:with,
12:u14:sawhney,,
5:u20:T,
6:u21:Th,
7:u22:Thr,
8:u23:Thro,
11:u40:BLOCKIN,
10:uB1:NOCAPS,
9:uI0:.....,
9:uI1::.,..,
7:uI2:.,.,
5:uI0:5,
5:uI0:4,
5:uI1:9,
5:uI2:8,
7:u01:FMC,
9:u02:.....,
12:u03:Through:,
8:u04:with,
12:u05:Sawhney,,
11:u06:Harshit,
9:u07:Advs.,
8:u08:BEST,
15:u01:CORPORATION,
14:u02:Plaintiffs,
7:u03:Mr.,
9:u06:Dixit,
9:u10:.....,
12:u11:through:,
8:u12:with,
12:u13:sawhney,,
11:u14:harshit,
5:u20:w,
6:u21:wi,
7:u22:wit,
8:u23:with,
10:uB0:NOCAPS,
9:uI0::.,..,
7:uI1:.,.,
8:uI2:,.,.,
5:uI0:9,
5:uI1:8,
7:u00:FMC,
9:u01:.....,
12:u02:Through:,
8:u03:with,
12:u04:Sawhney,,
11:u05:Harshit,
9:u06:Advs.,
10:u07:versus,
15:u00:CORPORATION,
14:u01:Plaintiffs,
7:u02:Mr.,
9:u05:Dixit,
8:u08:CROP,
12:u10:through:,
8:u11:with,
12:u12:sawhney,,
11:u13:harshit,
9:u14:advs.,
5:u20:S,
6:u21:Sa,
7:u22:Saw,
8:u23:Sawh,
10:uB2:NOCAPS,
7:uI0:.,.,
8:uI1:,.,.,
6:uI2:.,,
5:uI2:2,
5:uI0:8,
9:u00:.....,
12:u01:Through:,
8:u02:with,
12:u03:Sawhney,,
11:u04:Harshit,
9:u05:Advs.,
10:u06:versus,
8:u07:BEST,
14:u00:Plaintiffs,
7:u01:Mr.,
9:u04:Dixit,
8:u07:CROP,
14:u08:Defendants,
8:u10:with,
12:u11:sawhney,,
11:u12:harshit,
9:u13:advs.,
10:u14:versus,
5:u20:H,
6:u21:Ha,
7:u22:Har,
8:u23:Hars,
8:uI0:,.,.,
6:uI1:.,,
5:uI1:2,
12:u00:Through:,
8:u01:with,
12:u02:Sawhney,,
11:u03:Harshit,
9:u04:Advs.,
10:u05:versus,
8:u06:BEST,
8:u08:Adv.,
7:u00:Mr.,
9:u03:Dixit,
8:u06:CROP,
14:u07:Defendants,
12:u10:sawhney,,
11:u11:harshit,
9:u12:advs.,
10:u13:versus,
8:u14:best,
5:u20:A,
6:u21:Ad,
7:u22:Adv,
8:u23:Advs,
6:uI0:.,,
5:uI0:2,
8:u00:with,
12:u01:Sawhney,,
11:u02:Harshit,
9:u03:Advs.,
10:u04:versus,
8:u05:BEST,
11:u08:Chopra,,
9:u02:Dixit,
8:u05:CROP,
14:u06:Defendants,
11:u10:harshit,
9:u11:advs.,
10:u12:versus,
8:u13:best,
5:u20:v,
6:u21:ve,
7:u22:ver,
8:u23:vers,
12:u00:Sawhney,,
11:u01:Harshit,
9:u02:Advs.,
10:u03:versus,
8:u04:BEST,
8:u07:Adv.,
7:u08:Dr.,
9:u01:Dixit,
8:u04:CROP,
14:u05:Defendants,
7:u08:Ms.,
9:u10:advs.,
10:u11:versus,
8:u12:best,
5:u20:B,
6:u21:BE,
7:u22:BES,
8:u23:BEST,
11:u00:Harshit,
9:u01:Advs.,
10:u02:versus,
8:u03:BEST,
8:u06:Adv.,
11:u07:Chopra,,
9:u00:Dixit,
8:u03:CROP,
14:u04:Defendants,
7:u07:Ms.,
10:u08:Victor,
10:u10:versus,
8:u11:best,
8:u14:adv.,
8:uI2::.,.,
9:u00:Advs.,
10:u01:versus,
8:u02:BEST,
8:u05:Adv.,
11:u06:Chopra,,
7:u07:Dr.,
10:u08:Singh,,
8:u02:CROP,
14:u03:Defendants,
7:u06:Ms.,
10:u07:Victor,
8:u08:Hima,
8:u10:best,
8:u13:adv.,
11:u14:chopra,,
8:uI1::.,.,
9:uI2:..,,.,
10:u00:versus,
8:u01:BEST,
8:u04:Adv.,
11:u05:Chopra,,
7:u06:Dr.,
8:u01:CROP,
14:u02:Defendants,
7:u05:Ms.,
10:u06:Victor,
8:u07:Hima,
8:u12:adv.,
11:u13:chopra,,
7:u14:dr.,
8:u23:Adv.,
8:uI0::.,.,
9:uI1:..,,.,
9:uI2:,.,.,,
8:u00:BEST,
8:u03:Adv.,
11:u04:Chopra,,
7:u05:Dr.,
10:u07:Singh,,
8:u00:CROP,
14:u01:Defendants,
7:u04:Ms.,
10:u05:Victor,
8:u06:Hima,
14:u08:15352/2019,
8:u11:adv.,
11:u12:chopra,,
7:u13:dr.,
7:u14:ms.,
6:u21:Ch,
7:u22:Cho,
8:u23:Chop,
9:uI0:..,,.,
9:uI1:,.,.,,
8:uI2:.,.,,
8:u02:Adv.,
11:u03:Chopra,,
7:u04:Dr.,
10:u06:Singh,,
14:u00:Defendants,
7:u03:Ms.,
10:u04:Victor,
8:u05:Hima,
14:u07:15352/2019,
8:u10:adv.,
11:u11:chopra,,
7:u12:dr.,
7:u13:ms.,
10:u14:singh,,
5:u20:D,
6:u21:Dr,
7:u22:Dr.,
7:u23:Dr.,
9:uI0:,.,.,,
8:uI1:.,.,,
5:uI2:7,
8:u01:Adv.,
11:u02:Chopra,,
7:u03:Dr.,
10:u05:Singh,,
7:u02:Ms.,
10:u03:Victor,
8:u04:Hima,
14:u06:15352/2019,
12:u08:611/2019,
11:u10:chopra,,
7:u11:dr.,
7:u12:ms.,
10:u13:singh,,
5:u20:M,
6:u21:Ms,
7:u22:Ms.,
7:u23:Ms.,
8:uI0:.,.,,
6:uI2:,.,
5:uI1:7,
8:u00:Adv.,
11:u01:Chopra,,
7:u02:Dr.,
10:u04:Singh,,
7:u01:Ms.,
10:u02:Victor,
8:u03:Hima,
14:u05:15352/2019,
12:u07:611/2019,
7:u10:dr.,
7:u11:ms.,
10:u12:singh,,
6:u21:Si,
7:u22:Sin,
8:u23:Sing,
6:uI1:,.,
5:uI0:7,
11:u00:Chopra,,
7:u01:Dr.,
10:u03:Singh,,
7:u00:Ms.,
10:u01:Victor,
8:u02:Hima,
14:u04:15352/2019,
12:u06:611/2019,
7:u10:ms.,
10:u11:singh,,
6:uI0:,.,
7:u00:Dr.,
10:u02:Singh,,
10:u00:Victor,
8:u01:Hima,
14:u03:15352/2019,
12:u05:611/2019,
10:u10:singh,,
10:u01:Singh,,
8:u00:Hima,
14:u02:15352/2019,
12:u04:611/2019,
10:u00:Singh,,
14:u01:15352/2019,
12:u03:611/2019,
14:u00:15352/2019,
12:u02:611/2019,
12:u01:611/2019,
9:u08:NATCO,
12:u00:611/2019,
10:u08:PHARMA,
9:u07:NATCO,
13:u08:Digitally,
10:u07:PHARMA,
13:u08:Defendant,
9:u06:NATCO,
12:u08:By:SUNIL,
10:u06:PHARMA,
13:u07:Defendant,
10:u08:Signed,
9:u14:natco,
9:u05:NATCO,
13:u07:Digitally,
11:u08:Signing,
10:u05:PHARMA,
13:u06:Defendant,
10:u07:Signed,
9:u08:SINGH,
9:u13:natco,
5:uG5:1,
9:u04:NATCO,
13:u06:Digitally,
12:u07:By:SUNIL,
12:u08:16:38:34,
10:u04:PHARMA,
13:u05:Defendant,
10:u06:Signed,
9:u07:SINGH,
19:u08:Date:08.07.2021,
9:u12:natco,
13:u14:digitally,
5:u20:N,
6:u21:NA,
7:u22:NAT,
8:u23:NATC,
5:uG4:1,
9:u03:NATCO,
13:u05:Digitally,
12:u06:By:SUNIL,
11:u07:Signing,
13:u08:Signature,
10:u03:PHARMA,
13:u04:Defendant,
10:u05:Signed,
9:u06:SINGH,
19:u07:Date:08.07.2021,
9:u11:natco,
13:u13:digitally,
12:u14:by:sunil,
13:u82:LOWERFONT,
9:u02:NATCO,
13:u04:Digitally,
12:u05:By:SUNIL,
11:u06:Signing,
12:u07:16:38:34,
10:u02:PHARMA,
13:u03:Defendant,
10:u04:Signed,
9:u05:SINGH,
19:u06:Date:08.07.2021,
7:u08:Not,
9:u10:natco,
13:u12:digitally,
12:u13:by:sunil,
11:u14:signing,
6:u21:Di,
7:u22:Dig,
8:u23:Digi,
13:u81:LOWERFONT,
5:uI2::,
9:u01:NATCO,
13:u03:Digitally,
12:u04:By:SUNIL,
11:u05:Signing,
12:u06:16:38:34,
13:u07:Signature,
10:u01:PHARMA,
13:u02:Defendant,
10:u03:Signed,
9:u04:SINGH,
19:u05:Date:08.07.2021,
7:u07:Not,
13:u11:digitally,
12:u12:by:sunil,
11:u13:signing,
12:u14:16:38:34,
6:u21:By,
7:u22:By:,
8:u23:By:S,
13:u80:LOWERFONT,
5:uI1::,
7:uI2::..,
9:u00:NATCO,
13:u02:Digitally,
12:u03:By:SUNIL,
11:u04:Signing,
12:u05:16:38:34,
13:u06:Signature,
10:u00:PHARMA,
13:u01:Defendant,
10:u02:Signed,
9:u03:SINGH,
19:u04:Date:08.07.2021,
7:u06:Not,
13:u10:digitally,
12:u11:by:sunil,
11:u12:signing,
12:u13:16:38:34,
13:u14:signature,
7:u22:Sig,
8:u23:Sign,
18:uC2:CONTAINSDIGITS,
5:uI0::,
7:uI1::..,
6:uI2:::,
13:u01:Digitally,
12:u02:By:SUNIL,
11:u03:Signing,
12:u04:16:38:34,
13:u05:Signature,
13:u00:Defendant,
10:u01:Signed,
9:u02:SINGH,
19:u03:Date:08.07.2021,
7:u05:Not,
12:u10:by:sunil,
11:u11:signing,
12:u12:16:38:34,
13:u13:signature,
5:u20:1,
6:u21:16,
7:u22:16:,
8:u23:16:3,
18:uC0:CONTAINSDIGITS,
7:uI0::..,
6:uI1:::,
13:u00:Digitally,
12:u01:By:SUNIL,
11:u02:Signing,
12:u03:16:38:34,
13:u04:Signature,
10:u00:Signed,
9:u01:SINGH,
19:u02:Date:08.07.2021,
7:u04:Not,
11:u10:signing,
12:u11:16:38:34,
13:u12:signature,
18:uC1:CONTAINSDIGITS,
6:uI0:::,
12:u00:By:SUNIL,
11:u01:Signing,
12:u02:16:38:34,
13:u03:Signature,
9:u00:SINGH,
19:u01:Date:08.07.2021,
7:u03:Not,
12:u10:16:38:34,
13:u11:signature,
11:u00:Signing,
12:u01:16:38:34,
13:u02:Signature,
19:u00:Date:08.07.2021,
7:u02:Not,
13:u10:signature,
12:u00:16:38:34,
13:u01:Signature,
7:u01:Not,
13:u00:Signature,
7:u00:Not,
5:uH2:2,
5:uH1:2,
5:uH0:2,
5:uH2:3,
5:uH1:3,
5:uH0:3,
5:uH2:4,
5:uH1:4,
5:uH0:4,
5:uH2:5,
5:uH1:5,
5:uH0:5,
5:uH2:6,
5:uH1:6,
5:uH0:6,
5:uH2:7,
5:uH1:7,
5:uH0:7,
5:uH2:8,
5:uH1:8,
5:uH0:8,
5:uH2:9,
5:uH1:9,
5:uH0:9,
6:uH2:10,
6:uH1:10,
6:uH0:10,
6:uH2:11,
6:uH1:11,
6:uH0:11,
8:u08:Page,
5:u08:2,
5:uH5:1,
8:u07:Page,
13:u08:Guruswamy,
5:u07:2,
11:u62:PAGEEND,
5:uH4:1,
8:u06:Page,
11:u08:Sharma,,
5:u06:2,
12:u08:Nataraj,,
8:u14:page,
11:u61:PAGEEND,
13:u62:PAGESTART,
10:uI2:()/()/,
5:uH3:1,
13:u07:Guruswamy,
9:u08:Vyas,,
5:u05:2,
12:u07:Nataraj,,
11:u60:PAGEEND,
13:u06:Guruswamy,
11:u07:Sharma,,
10:u08:CORAM:,
5:u04:2,
12:u06:Nataraj,,
13:u14:guruswamy,
9:uI2::..,.,
13:u05:Guruswamy,
11:u06:Sharma,,
9:u07:Vyas,,
11:u08:HON'BLE,
5:u03:2,
12:u05:Nataraj,,
13:u13:guruswamy,
11:u14:sharma,,
9:uI1::..,.,
13:u04:Guruswamy,
11:u05:Sharma,,
9:u06:Vyas,,
10:u07:CORAM:,
5:u08:J,
5:u02:2,
12:u04:Nataraj,,
7:u08:MR.,
13:u12:guruswamy,
11:u13:sharma,,
9:u14:vyas,,
5:u20:G,
6:u21:Gu,
7:u22:Gur,
8:u23:Guru,
9:uI0::..,.,
8:uI2:,...,
13:u03:Guruswamy,
11:u04:Sharma,,
9:u05:Vyas,,
10:u06:CORAM:,
11:u07:HON'BLE,
5:u08:%,
5:u01:2,
12:u03:Nataraj,,
7:u07:MR.,
5:u08:U,
13:u11:guruswamy,
11:u12:sharma,,
9:u13:vyas,,
10:u14:coram:,
6:u21:Sh,
7:u22:Sha,
8:u23:Shar,
8:uI1:,...,
13:u02:Guruswamy,
11:u03:Sharma,,
9:u04:Vyas,,
10:u05:CORAM:,
11:u06:HON'BLE,
5:u07:J,
14:u08:07.07.2021,
5:u00:2,
12:u02:Nataraj,,
7:u06:MR.,
5:u07:U,
13:u10:guruswamy,
11:u11:sharma,,
9:u12:vyas,,
10:u13:coram:,
11:u14:hon'ble,
5:u20:V,
6:u21:Vy,
7:u22:Vya,
8:u23:Vyas,
8:uI0:,...,
13:u01:Guruswamy,
11:u02:Sharma,,
9:u03:Vyas,,
10:u04:CORAM:,
11:u05:HON'BLE,
5:u06:J,
5:u07:%,
6:u08:1.,
12:u01:Nataraj,,
7:u05:MR.,
5:u06:U,
11:u10:sharma,,
9:u11:vyas,,
10:u12:coram:,
11:u13:hon'ble,
5:u14:j,
6:u21:CO,
7:u22:COR,
8:u23:CORA,
7:uI2:'..,
13:u00:Guruswamy,
11:u01:Sharma,,
9:u02:Vyas,,
10:u03:CORAM:,
11:u04:HON'BLE,
5:u05:J,
5:u06:%,
14:u07:07.07.2021,
8:u08:This,
12:u00:Nataraj,,
7:u04:MR.,
5:u05:U,
9:u10:vyas,,
10:u11:coram:,
11:u12:hon'ble,
5:u13:j,
5:u14:%,
6:u21:HO,
7:u22:HON,
8:u23:HON',
7:uI1:'..,
11:u00:Sharma,,
9:u01:Vyas,,
10:u02:CORAM:,
11:u03:HON'BLE,
5:u04:J,
5:u05:%,
14:u06:07.07.2021,
6:u07:1.,
7:u03:MR.,
5:u04:U,
12:u08:judgment,
10:u10:coram:,
11:u11:hon'ble,
5:u12:j,
5:u13:%,
14:u14:07.07.2021,
5:u20:J,
5:u21:J,
5:u22:J,
5:u23:J,
7:uI0:'..,
9:u00:Vyas,,
10:u01:CORAM:,
11:u02:HON'BLE,
5:u03:J,
5:u04:%,
14:u05:07.07.2021,
6:u06:1.,
8:u07:This,
15:u08:application,
7:u02:MR.,
5:u03:U,
12:u07:judgment,
7:u08:and,
11:u10:hon'ble,
5:u11:j,
5:u12:%,
14:u13:07.07.2021,
6:u14:1.,
5:u20:%,
5:u21:%,
5:u22:%,
5:u23:%,
5:uEL:1,
6:uI2:..,
10:u00:CORAM:,
11:u01:HON'BLE,
5:u02:J,
5:u03:%,
14:u04:07.07.2021,
6:u05:1.,
8:u06:This,
15:u08:Corporation,
7:u01:MR.,
5:u02:U,
12:u06:judgment,
7:u07:and,
8:u08:has,,
5:u10:j,
5:u11:%,
14:u12:07.07.2021,
6:u13:1.,
8:u14:this,
5:u20:0,
6:u21:07,
7:u22:07.,
8:u23:07.0,
5:uE3:1,
6:uI1:..,
11:u00:HON'BLE,
5:u01:J,
5:u02:%,
14:u03:07.07.2021,
6:u04:1.,
8:u05:This,
15:u07:application,
16:u08:plaintiff"),,
7:u00:MR.,
5:u01:U,
12:u05:judgment,
7:u06:and,
8:u07:has,,
8:u08:(who,
5:u10:%,
14:u11:07.07.2021,
6:u12:1.,
8:u13:this,
12:u14:611/2019,
6:u21:1.,
6:u22:1.,
6:u23:1.,
6:uI0:..,
7:uI2:/(),
5:u00:J,
5:u01:%,
14:u02:07.07.2021,
6:u03:1.,
8:u04:This,
15:u06:application,
15:u07:Corporation,
5:u00:U,
12:u04:judgment,
7:u05:and,
8:u06:has,,
8:u07:(who,
11:u08:against,
14:u10:07.07.2021,
6:u11:1.,
8:u12:this,
12:u13:611/2019,
15:u14:application,
7:u22:Thi,
8:u23:This,
7:uI1:/(),
10:uI2://()/.,
5:u00:%,
14:u01:07.07.2021,
6:u02:1.,
8:u03:This,
15:u05:application,
15:u06:Corporation,
16:u07:plaintiff"),,
18:u08:(Comm)69/2021,,
12:u03:judgment,
7:u04:and,
8:u05:has,,
8:u06:(who,
11:u07:against,
6:u10:1.,
8:u11:this,
12:u12:611/2019,
15:u13:application,
15:u14:corporation,
5:u20:6,
6:u21:61,
7:u22:611,
8:u23:611/,
7:uI0:/(),
10:uI1://()/.,
6:uI2:,,,
14:u00:07.07.2021,
6:u01:1.,
8:u02:This,
15:u04:application,
15:u05:Corporation,
16:u06:plaintiff"),,
9:u08:Civil,
12:u02:judgment,
7:u03:and,
8:u04:has,,
8:u05:(who,
11:u06:against,
9:u08:under,
8:u10:this,
12:u11:611/2019,
15:u12:application,
15:u13:corporation,
16:u14:plaintiff"),,
5:u20:a,
6:u21:ap,
7:u22:app,
8:u23:appl,
10:uI0://()/.,
6:uI1:,,,
8:uI2:(,,",
6:u00:1.,
8:u01:This,
15:u03:application,
15:u04:Corporation,
16:u05:plaintiff"),,
18:u07:(Comm)69/2021,,
6:u08:2.,
12:u01:judgment,
7:u02:and,
8:u03:has,,
8:u04:(who,
11:u05:against,
9:u07:under,
14:u08:Procedure,,
12:u10:611/2019,
15:u11:application,
15:u12:corporation,
16:u13:plaintiff"),,
6:u21:Co,
7:u22:Cor,
8:u23:Corp,
6:uI0:,,,
8:uI1:(,,",
9:uI2:"),(),
8:u00:This,
15:u02:application,
15:u03:Corporation,
16:u04:plaintiff"),,
18:u06:(Comm)69/2021,,
9:u07:Civil,
6:u08:In,
12:u00:judgment,
7:u01:and,
8:u02:has,,
8:u03:(who,
11:u04:against,
9:u06:under,
14:u07:Procedure,,
15:u10:application,
15:u11:corporation,
16:u12:plaintiff"),,
18:u14:(comm)69/2021,,
5:u20:p,
6:u21:pl,
7:u22:pla,
8:u23:plai,
8:uI0:(,,",
9:uI1:"),(),
5:uI2:/,
15:u01:application,
15:u02:Corporation,
16:u03:plaintiff"),,
18:u05:(Comm)69/2021,,
9:u06:Civil,
6:u07:2.,
14:u08:("IN'307",,
7:u00:and,
8:u01:has,,
8:u02:(who,
11:u03:against,
9:u05:under,
14:u06:Procedure,,
8:u08:each,
15:u10:corporation,
16:u11:plaintiff"),,
18:u13:(comm)69/2021,,
9:u14:civil,
9:uI0:"),(),
5:uI1:/,
8:uI2:()/,,
15:u00:application,
15:u01:Corporation,
16:u02:plaintiff"),,
18:u04:(Comm)69/2021,,
9:u05:Civil,
6:u06:2.,
6:u07:In,
11:u08:short),,
8:u00:has,,
8:u01:(who,
11:u02:against,
9:u04:under,
14:u05:Procedure,,
8:u07:each,
6:u08:in,
16:u10:plaintiff"),,
18:u12:(comm)69/2021,,
9:u13:civil,
6:u14:2.,
5:u20:(,
6:u21:(C,
7:u22:(Co,
8:u23:(Com,
5:uI0:/,
8:uI1:()/,,
8:uI2:,().,
15:u00:Corporation,
16:u01:plaintiff"),,
18:u03:(Comm)69/2021,,
9:u04:Civil,
6:u05:2.,
6:u06:In,
14:u07:("IN'307",,
11:u08:"CTPR"),
8:u00:(who,
11:u01:against,
9:u03:under,
14:u04:Procedure,,
8:u06:each,
6:u07:in,
9:u08:which,
18:u11:(comm)69/2021,,
9:u12:civil,
6:u13:2.,
6:u21:Ci,
7:u22:Civ,
8:u23:Civi,
8:uI0:()/,,
8:uI1:,().,
16:u00:plaintiff"),,
18:u02:(Comm)69/2021,,
9:u03:Civil,
6:u04:2.,
6:u05:In,
14:u06:("IN'307",,
11:u07:short),,
11:u08:alleges,
11:u00:against,
9:u02:under,
14:u03:Procedure,,
8:u05:each,
6:u06:in,
9:u07:which,
18:u10:(comm)69/2021,,
9:u11:civil,
6:u12:2.,
14:u14:("in'307",,
5:u20:2,
6:u21:2.,
6:u22:2.,
6:u23:2.,
8:uI0:,().,
18:u01:(Comm)69/2021,,
9:u02:Civil,
6:u03:2.,
6:u04:In,
14:u05:("IN'307",,
11:u06:short),,
11:u07:"CTPR"),
17:u08:manufacturing,
9:u01:under,
14:u02:Procedure,,
8:u04:each,
6:u05:in,
9:u06:which,
8:u08:that,
9:u10:civil,
6:u11:2.,
14:u13:("in'307",,
11:u14:short),,
6:u21:In,
6:u22:In,
6:u23:In,
15:uI2:("'",)("'",,
6:uI2:11,
18:u00:(Comm)69/2021,,
9:u01:Civil,
6:u02:2.,
6:u03:In,
14:u04:("IN'307",,
11:u05:short),,
11:u06:"CTPR"),
11:u07:alleges,
8:u08:even,
9:u00:under,
14:u01:Procedure,,
8:u03:each,
6:u04:in,
9:u05:which,
8:u07:that,
6:u10:2.,
14:u12:("in'307",,
11:u13:short),,
11:u14:"ctpr"),
6:u21:(",
7:u22:("I,
8:u23:("IN,
15:uI1:("'",)("'",,
7:uI2:),(,
6:uI1:11,
9:u00:Civil,
6:u01:2.,
6:u02:In,
14:u03:("IN'307",,
11:u04:short),,
11:u05:"CTPR"),
11:u06:alleges,
17:u07:manufacturing,
7:u08:any,
14:u00:Procedure,,
8:u02:each,
6:u03:in,
9:u04:which,
8:u06:that,
9:u08:while,
14:u11:("in'307",,
11:u12:short),,
11:u13:"ctpr"),
11:u14:alleges,
5:u20:s,
6:u21:sh,
7:u22:sho,
8:u23:shor,
15:uI0:("'",)("'",,
7:uI1:),(,
8:uI2:"").,
6:uI0:11,
6:u00:2.,
6:u01:In,
14:u02:("IN'307",,
11:u03:short),,
11:u04:"CTPR"),
11:u05:alleges,
17:u06:manufacturing,
8:u07:even,
9:u08:doing,
8:u01:each,
6:u02:in,
9:u03:which,
8:u05:that,
9:u07:while,
11:u08:license,
14:u10:("in'307",,
11:u11:short),,
11:u12:"ctpr"),
11:u13:alleges,
17:u14:manufacturing,
5:u20:",
6:u21:"C,
7:u22:"CT,
8:u23:"CTP,
7:uI0:),(,
8:uI1:"").,
6:u00:In,
14:u01:("IN'307",,
11:u02:short),,
11:u03:"CTPR"),
11:u04:alleges,
17:u05:manufacturing,
8:u06:even,
7:u07:any,
8:u00:each,
6:u01:in,
9:u02:which,
8:u04:that,
9:u06:while,
11:u07:license,
6:u08:so,
11:u10:short),,
11:u11:"ctpr"),
11:u12:alleges,
17:u13:manufacturing,
8:u14:even,
6:u21:al,
7:u22:all,
8:u23:alle,
8:uI0:"").,
7:uI2:,,,,
14:u00:("IN'307",,
11:u01:short),,
11:u02:"CTPR"),
11:u03:alleges,
17:u04:manufacturing,
8:u05:even,
7:u06:any,
9:u07:doing,
6:u00:in,
9:u01:which,
8:u03:that,
9:u05:while,
11:u06:license,
6:u07:so,
11:u10:"ctpr"),
11:u11:alleges,
17:u12:manufacturing,
8:u13:even,
7:u14:any,
5:u20:m,
6:u21:ma,
7:u22:man,
8:u23:manu,
7:uI1:,,,,
11:u00:short),,
11:u01:"CTPR"),
11:u02:alleges,
17:u03:manufacturing,
8:u04:even,
7:u05:any,
9:u06:doing,
6:u08:3.,
9:u00:which,
8:u02:that,
9:u04:while,
11:u05:license,
6:u06:so,
5:u08:3,
11:u10:alleges,
17:u11:manufacturing,
8:u12:even,
7:u13:any,
9:u14:doing,
5:u20:e,
6:u21:ev,
7:u22:eve,
8:u23:even,
7:uI0:,,,,
11:u00:"CTPR"),
11:u01:alleges,
17:u02:manufacturing,
8:u03:even,
7:u04:any,
9:u05:doing,
7:u08:The,
8:u01:that,
9:u03:while,
11:u04:license,
6:u05:so,
5:u07:3,
17:u10:manufacturing,
8:u11:even,
7:u12:any,
9:u13:doing,
6:u21:an,
7:u22:any,
7:u23:any,
7:uI2:,,.,
11:u00:alleges,
17:u01:manufacturing,
8:u02:even,
7:u03:any,
9:u04:doing,
6:u07:3.,
8:u00:that,
9:u02:while,
11:u03:license,
6:u04:so,
5:u06:3,
16:u08:applications,
8:u10:even,
7:u11:any,
9:u12:doing,
5:u20:d,
6:u21:do,
7:u22:doi,
8:u23:doin,
7:uI1:,,.,
17:u00:manufacturing,
8:u01:even,
7:u02:any,
9:u03:doing,
6:u06:3.,
7:u07:The,
16:u08:infringement,
9:u01:while,
11:u02:license,
6:u03:so,
5:u05:3,
16:u07:applications,
12:u08:disposes,
7:u10:any,
9:u11:doing,
6:u14:3.,
7:uI0:,,.,
8:u00:even,
7:u01:any,
9:u02:doing,
6:u05:3.,
7:u06:The,
6:u08:4.,
9:u00:while,
11:u01:license,
6:u02:so,
5:u04:3,
16:u06:applications,
12:u07:disposes,
6:u08:of,
9:u10:doing,
6:u13:3.,
7:u14:the,
7:u00:any,
9:u01:doing,
6:u04:3.,
7:u05:The,
16:u07:infringement,
7:u08:For,
11:u00:license,
6:u01:so,
5:u03:3,
16:u05:applications,
12:u06:disposes,
6:u07:of,
6:u12:3.,
7:u13:the,
12:u14:judgment,
5:u20:3,
6:u21:3.,
6:u22:3.,
6:u23:3.,
9:u00:doing,
6:u03:3.,
7:u04:The,
16:u06:infringement,
6:u07:4.,
11:u08:pertain,
6:u00:so,
5:u02:3,
16:u04:applications,
12:u05:disposes,
6:u06:of,
8:u08:ease,
6:u11:3.,
7:u12:the,
12:u13:judgment,
16:u14:infringement,
7:u22:The,
7:u23:The,
6:u02:3.,
7:u03:The,
16:u05:infringement,
6:u06:4.,
7:u07:For,
6:u08:IA,
5:u01:3,
16:u03:applications,
12:u04:disposes,
6:u05:of,
8:u07:ease,
15:u08:principally,
6:u10:3.,
7:u11:the,
12:u12:judgment,
16:u13:infringement,
6:u14:4.,
5:u20:j,
6:u21:ju,
7:u22:jud,
8:u23:judg,
6:u01:3.,
7:u02:The,
16:u04:infringement,
6:u05:4.,
7:u06:For,
11:u07:pertain,
15:u08:"defendant",
5:u00:3,
16:u02:applications,
12:u03:disposes,
6:u04:of,
8:u06:ease,
15:u07:principally,
15:u08:15352/2019,,
7:u10:the,
12:u11:judgment,
16:u12:infringement,
6:u13:4.,
7:u14:for,
5:u20:i,
6:u21:in,
7:u22:inf,
8:u23:infr,
6:u00:3.,
7:u01:The,
16:u03:infringement,
6:u04:4.,
7:u05:For,
11:u06:pertain,
6:u07:IA,
8:u08:i.e.,
16:u01:applications,
12:u02:disposes,
6:u03:of,
8:u05:ease,
15:u06:principally,
15:u07:15352/2019,,
9:u08:would,
12:u10:judgment,
16:u11:infringement,
6:u12:4.,
7:u13:for,
11:u14:pertain,
5:u20:4,
6:u21:4.,
6:u22:4.,
6:u23:4.,
7:u00:The,
16:u02:infringement,
6:u03:4.,
7:u04:For,
11:u05:pertain,
6:u06:IA,
15:u07:"defendant",
6:u08:A.,
16:u00:applications,
12:u01:disposes,
6:u02:of,
8:u04:ease,
15:u05:principally,
15:u06:15352/2019,,
9:u07:would,
9:u08:Natco,
16:u10:infringement,
6:u11:4.,
7:u12:for,
11:u13:pertain,
6:u14:ia,
6:u21:Fo,
7:u22:For,
7:u23:For,
16:u01:infringement,
6:u02:4.,
7:u03:For,
11:u04:pertain,
6:u05:IA,
15:u06:"defendant",
8:u07:i.e.,
7:u08:Re.,
12:u00:disposes,
6:u01:of,
8:u03:ease,
15:u04:principally,
15:u05:15352/2019,,
9:u06:would,
9:u07:Natco,
6:u10:4.,
7:u11:for,
11:u12:pertain,
6:u13:ia,
15:u14:"defendant",
6:u21:pe,
7:u22:per,
8:u23:pert,
8:uI2:/,.,,
16:u00:infringement,
6:u01:4.,
7:u02:For,
11:u03:pertain,
6:u04:IA,
15:u05:"defendant",
8:u06:i.e.,
6:u07:A.,
9:u08:Facts,
6:u00:of,
8:u02:ease,
15:u03:principally,
15:u04:15352/2019,,
9:u05:would,
9:u06:Natco,
10:u08:IN'307,
7:u10:for,
11:u11:pertain,
6:u12:ia,
15:u13:"defendant",
8:u14:i.e.,
6:u21:IA,
6:u22:IA,
6:u23:IA,
8:uI1:/,.,,
10:uI2:""()/,,
6:u00:4.,
7:u01:For,
11:u02:pertain,
6:u03:IA,
15:u04:"defendant",
8:u05:i.e.,
6:u06:A.,
7:u07:Re.,
6:u08:5.,
8:u01:ease,
15:u02:principally,
15:u03:15352/2019,,
9:u04:would,
9:u05:Natco,
10:u07:IN'307,
11:u10:pertain,
6:u11:ia,
15:u12:"defendant",
8:u13:i.e.,
6:u14:a.,
6:u21:"d,
7:u22:"de,
8:u23:"def,
8:uI0:/,.,,
10:uI1:""()/,,
7:uI2:...,
7:u00:For,
11:u01:pertain,
6:u02:IA,
15:u03:"defendant",
8:u04:i.e.,
6:u05:A.,
7:u06:Re.,
9:u07:Facts,
8:u00:ease,
15:u01:principally,
15:u02:15352/2019,,
9:u03:would,
9:u04:Natco,
10:u06:IN'307,
6:u10:ia,
15:u11:"defendant",
8:u12:i.e.,
6:u13:a.,
7:u14:re.,
6:u21:i.,
7:u22:i.e,
8:u23:i.e.,
10:uI0:""()/,,
7:uI1:...,
11:u00:pertain,
6:u01:IA,
15:u02:"defendant",
8:u03:i.e.,
6:u04:A.,
7:u05:Re.,
9:u06:Facts,
6:u07:5.,
7:u08:(i),
15:u00:principally,
15:u01:15352/2019,,
9:u02:would,
9:u03:Natco,
10:u05:IN'307,
13:u08:plaintiff,
15:u10:"defendant",
8:u11:i.e.,
6:u12:a.,
7:u13:re.,
9:u14:facts,
6:u21:A.,
6:u22:A.,
6:u23:A.,
7:uI0:...,
6:uI2:.',
6:u00:IA,
15:u01:"defendant",
8:u02:i.e.,
6:u03:A.,
7:u04:Re.,
9:u05:Facts,
6:u06:5.,
15:u00:15352/2019,,
9:u01:would,
9:u02:Natco,
10:u04:IN'307,
13:u07:plaintiff,
8:u10:i.e.,
6:u11:a.,
7:u12:re.,
9:u13:facts,
6:u14:5.,
7:u22:Re.,
7:u23:Re.,
6:uI1:.',
15:u00:"defendant",
8:u01:i.e.,
6:u02:A.,
7:u03:Re.,
9:u04:Facts,
6:u05:5.,
7:u07:(i),
8:u08:May,,
9:u00:would,
9:u01:Natco,
10:u03:IN'307,
13:u06:plaintiff,
6:u10:a.,
7:u11:re.,
9:u12:facts,
6:u13:5.,
6:u21:Fa,
7:u22:Fac,
8:u23:Fact,
6:uI0:.',
8:u00:i.e.,
6:u01:A.,
7:u02:Re.,
9:u03:Facts,
6:u04:5.,
7:u06:(i),
9:u00:Natco,
10:u02:IN'307,
13:u05:plaintiff,
9:u08:2005,,
7:u10:re.,
9:u11:facts,
6:u12:5.,
7:u14:(i),
5:u20:5,
6:u21:5.,
6:u22:5.,
6:u23:5.,
6:u00:A.,
7:u01:Re.,
9:u02:Facts,
6:u03:5.,
7:u05:(i),
8:u07:May,,
7:u08:the,
10:u01:IN'307,
13:u04:plaintiff,
9:u07:2005,,
11:u08:claimed,
9:u10:facts,
6:u11:5.,
7:u13:(i),
6:uI2:(),
7:u00:Re.,
9:u01:Facts,
6:u02:5.,
7:u04:(i),
8:u06:May,,
5:u08:1,
10:u00:IN'307,
13:u03:plaintiff,
9:u06:2005,,
11:u07:claimed,
16:u08:application,,
6:u10:5.,
7:u12:(i),
8:u14:may,,
6:u21:(i,
7:u22:(i),
7:u23:(i),
6:uI1:(),
9:u00:Facts,
6:u01:5.,
7:u03:(i),
8:u05:May,,
7:u07:the,
9:u08:"11A.,
13:u02:plaintiff,
9:u05:2005,,
11:u06:claimed,
16:u07:application,,
7:u11:(i),
8:u13:may,,
13:u14:plaintiff,
6:uI0:(),
6:u00:5.,
7:u02:(i),
8:u04:May,,
7:u06:the,
5:u07:1,
15:u08:Publication,
13:u01:plaintiff,
9:u04:2005,,
11:u05:claimed,
16:u06:application,,
7:u10:(i),
8:u12:may,,
13:u13:plaintiff,
6:u21:Ma,
7:u22:May,
8:u23:May,,
7:u01:(i),
8:u03:May,,
7:u05:the,
5:u06:1,
9:u07:"11A.,
7:u08:(1),
13:u00:plaintiff,
9:u03:2005,,
11:u04:claimed,
16:u05:application,,
8:u11:may,,
13:u12:plaintiff,
5:u14:1,
7:u00:(i),
8:u02:May,,
7:u04:the,
9:u06:"11A.,
15:u07:Publication,
8:u08:Save,
9:u02:2005,,
11:u03:claimed,
16:u04:application,,
8:u10:may,,
13:u11:plaintiff,
5:u13:1,
9:u14:"11a.,
5:u20:t,
6:u21:th,
7:u22:the,
7:u23:the,
12:uC2:ALLDIGIT,
6:uI2:-:,
8:u01:May,,
7:u03:the,
9:u05:"11A.,
15:u06:Publication,
7:u07:(1),
9:u01:2005,,
11:u02:claimed,
16:u03:application,,
6:u08:as,
13:u10:plaintiff,
5:u12:1,
9:u13:"11a.,
15:u14:publication,
5:u21:1,
5:u22:1,
5:u23:1,
12:uC0:ALLDIGIT,
6:uI1:-:,
6:uI2:".,
8:u00:May,,
7:u02:the,
9:u04:"11A.,
15:u05:Publication,
7:u06:(1),
8:u07:Save,
7:u08:(2),
9:u00:2005,,
11:u01:claimed,
16:u02:application,,
6:u07:as,
10:u08:public,
5:u11:1,
9:u12:"11a.,
15:u13:publication,
7:u14:(1),
6:u21:"1,
7:u22:"11,
8:u23:"11A,
12:uC1:ALLDIGIT,
6:uI0:-:,
6:uI1:".,
5:uI2:-,
7:u01:the,
9:u03:"11A.,
15:u04:Publication,
7:u05:(1),
8:u06:Save,
11:u00:claimed,
16:u01:application,,
6:u06:as,
10:u07:public,
5:u10:1,
9:u11:"11a.,
15:u12:publication,
7:u13:(1),
8:u14:save,
6:u21:Pu,
7:u22:Pub,
8:u23:Publ,
6:uI0:".,
5:uI1:-,
7:u00:the,
9:u02:"11A.,
15:u03:Publication,
7:u04:(1),
8:u05:Save,
7:u07:(2),
7:u08:his,
16:u00:application,,
6:u05:as,
10:u06:public,
13:u08:applicant,
9:u10:"11a.,
15:u11:publication,
7:u12:(1),
8:u13:save,
6:u21:(1,
7:u22:(1),
7:u23:(1),
5:uI0:-,
9:u01:"11A.,
15:u02:Publication,
7:u03:(1),
8:u04:Save,
7:u06:(2),
6:u04:as,
10:u05:public,
13:u07:applicant,
15:u10:publication,
7:u11:(1),
8:u12:save,
7:u14:(2),
7:u22:Sav,
8:u23:Save,
9:u00:"11A.,
15:u01:Publication,
7:u02:(1),
8:u03:Save,
7:u05:(2),
7:u07:his,
6:u03:as,
10:u04:public,
13:u06:applicant,
7:u10:(1),
8:u11:save,
7:u13:(2),
15:u00:Publication,
7:u01:(1),
8:u02:Save,
7:u04:(2),
7:u06:his,
7:u08:(3),
6:u02:as,
10:u03:public,
13:u05:applicant,
8:u10:save,
7:u12:(2),
7:u14:his,
6:u21:(2,
7:u22:(2),
7:u23:(2),
7:u00:(1),
8:u01:Save,
7:u03:(2),
7:u05:his,
9:u08:Every,
6:u01:as,
10:u02:public,
13:u04:applicant,
7:u11:(2),
7:u13:his,
8:u00:Save,
7:u02:(2),
7:u04:his,
7:u07:(3),
15:u08:sub-section,
6:u00:as,
10:u01:public,
13:u03:applicant,
7:u10:(2),
7:u12:his,
5:u20:h,
6:u21:hi,
7:u22:his,
7:u23:his,
10:uI2:()-(),,
7:u01:(2),
7:u03:his,
7:u06:(3),
9:u07:Every,
10:u00:public,
13:u02:applicant,
8:u08:(1),,
7:u11:his,
7:u14:(3),
10:uI1:()-(),,
7:u00:(2),
7:u02:his,
7:u05:(3),
9:u06:Every,
15:u07:sub-section,
13:u01:applicant,
8:u07:(1),,
7:u10:his,
7:u13:(3),
9:u14:every,
10:uI0:()-(),,
7:u01:his,
7:u04:(3),
9:u05:Every,
15:u06:sub-section,
7:u08:was,
13:u00:applicant,
8:u06:(1),,
5:u08:4,
7:u12:(3),
9:u13:every,
15:u14:sub-section,
6:u21:(3,
7:u22:(3),
7:u23:(3),
7:u00:his,
7:u03:(3),
9:u04:Every,
15:u05:sub-section,
13:u08:relatable,
8:u05:(1),,
5:u07:4,
12:u08:declared,
7:u11:(3),
9:u12:every,
15:u13:sub-section,
5:u20:E,
6:u21:Ev,
7:u22:Eve,
8:u23:Ever,
10:uI2:-(),,-,
7:u02:(3),
9:u03:Every,
15:u04:sub-section,
7:u07:was,
6:u08:US,
8:u04:(1),,
5:u06:4,
12:u07:declared,
6:u08:to,
7:u10:(3),
9:u11:every,
15:u12:sub-section,
6:u21:su,
7:u22:sub,
8:u23:sub-,
10:uI1:-(),,-,
7:u01:(3),
9:u02:Every,
15:u03:sub-section,
7:u06:was,
13:u07:relatable,
14:u08:September,,
8:u03:(1),,
5:u05:4,
12:u06:declared,
6:u07:to,
11:u08:60/369,,
9:u10:every,
15:u11:sub-section,
7:u14:was,
10:uI0:-(),,-,
7:u00:(3),
9:u01:Every,
15:u02:sub-section,
7:u05:was,
13:u06:relatable,
6:u07:US,
8:u02:(1),,
5:u04:4,
12:u05:declared,
6:u06:to,
11:u07:60/369,,
8:u08:2001,
15:u10:sub-section,
7:u13:was,
13:u14:relatable,
9:u00:Every,
15:u01:sub-section,
7:u04:was,
13:u05:relatable,
6:u06:US,
14:u07:September,,
8:u08:(ii),
8:u01:(1),,
5:u03:4,
12:u04:declared,
6:u05:to,
11:u06:60/369,,
8:u07:2001,
7:u12:was,
13:u13:relatable,
6:u14:us,
6:u21:wa,
7:u22:was,
7:u23:was,
10:uI2:/,;/,;,
15:u00:sub-section,
7:u03:was,
13:u04:relatable,
6:u05:US,
14:u06:September,,
10:u08:grant,,
8:u00:(1),,
5:u02:4,
12:u03:declared,
6:u04:to,
11:u05:60/369,,
8:u06:2001,
7:u11:was,
13:u12:relatable,
6:u13:us,
14:u14:september,,
5:u20:r,
6:u21:re,
7:u22:rel,
8:u23:rela,
10:uI1:/,;/,;,
9:uI2:/,,,,,
7:u02:was,
13:u03:relatable,
6:u04:US,
14:u05:September,,
8:u07:(ii),
7:u08:(a),
5:u01:4,
12:u02:declared,
6:u03:to,
11:u04:60/369,,
8:u05:2001,
7:u10:was,
13:u11:relatable,
6:u12:us,
14:u13:september,,
5:u20:U,
6:u21:US,
6:u22:US,
6:u23:US,
10:uI0:/,;/,;,
9:uI1:/,,,,,
7:u01:was,
13:u02:relatable,
6:u03:US,
14:u04:September,,
8:u06:(ii),
10:u07:grant,,
5:u00:4,
12:u01:declared,
6:u02:to,
11:u03:60/369,,
8:u04:2001,
13:u10:relatable,
6:u11:us,
14:u12:september,,
8:u14:(ii),
6:u21:Se,
7:u22:Sep,
8:u23:Sept,
9:uI0:/,,,,,
7:uI2:"".,
7:u00:was,
13:u01:relatable,
6:u02:US,
14:u03:September,,
8:u05:(ii),
10:u06:grant,,
7:u07:(a),
7:u08:(b),
12:u00:declared,
6:u01:to,
11:u02:60/369,,
8:u03:2001,
6:u10:us,
14:u11:september,,
8:u13:(ii),
10:u14:grant,,
7:uI1:"".,
7:uI2:(),,
13:u00:relatable,
6:u01:US,
14:u02:September,,
8:u04:(ii),
10:u05:grant,,
7:u06:(a),
7:u08:has,
6:u00:to,
11:u01:60/369,,
8:u02:2001,
14:u10:september,,
8:u12:(ii),
10:u13:grant,,
7:u14:(a),
7:u22:(ii,
8:u23:(ii),
7:uI0:"".,
7:uI1:(),,
8:uI2:,,',,
6:u00:US,
14:u01:September,,
8:u03:(ii),
10:u04:grant,,
7:u05:(a),
7:u07:(b),
7:u08:(c),
11:u00:60/369,,
8:u01:2001,
8:u08:been,
8:u11:(ii),
10:u12:grant,,
7:u13:(a),
5:u20:g,
6:u21:gr,
7:u22:gra,
8:u23:gran,
7:uI0:(),,
8:uI1:,,',,
14:u00:September,,
8:u02:(ii),
10:u03:grant,,
7:u04:(a),
7:u06:(b),
7:u07:has,
8:u00:2001,
8:u07:been,
8:u10:(ii),
10:u11:grant,,
7:u12:(a),
7:u14:(b),
6:u21:(a,
7:u22:(a),
7:u23:(a),
8:uI0:,,',,
5:uI2:;,
8:u01:(ii),
10:u02:grant,,
7:u03:(a),
7:u05:(b),
7:u06:has,
7:u07:(c),
8:u06:been,
10:u10:grant,,
7:u11:(a),
7:u13:(b),
7:u14:has,
6:u22:in,
6:u23:in,
5:uI1:;,
8:u00:(ii),
10:u01:grant,,
7:u02:(a),
7:u04:(b),
7:u05:has,
7:u06:(c),
16:u08:"Prescribed",
8:u05:been,
9:u08:(1).",
7:u10:(a),
7:u12:(b),
7:u13:has,
7:u14:(c),
6:u21:(b,
7:u22:(b),
7:u23:(b),
5:uI0:;,
8:uI2:-();,
10:u00:grant,,
7:u01:(a),
7:u03:(b),
7:u04:has,
7:u05:(c),
8:u08:High,
8:u04:been,
9:u07:(1).",
6:u08:is,
7:u11:(b),
7:u12:has,
7:u13:(c),
6:u21:ha,
7:u22:has,
7:u23:has,
8:uI1:-();,
7:u00:(a),
7:u02:(b),
7:u03:has,
7:u04:(c),
16:u07:"Prescribed",
8:u08:Rule,
8:u03:been,
9:u06:(1).",
6:u07:is,
9:u08:Court,
7:u10:(b),
7:u11:has,
7:u12:(c),
6:u21:(c,
7:u22:(c),
7:u23:(c),
8:uI0:-();,
7:u01:(b),
7:u02:has,
7:u03:(c),
16:u06:"Prescribed",
8:u07:High,
8:u02:been,
9:u05:(1).",
6:u06:is,
9:u07:Court,
6:u08:24,
7:u10:has,
7:u11:(c),
16:u14:"prescribed",
9:uI2:-().",
7:u00:(b),
7:u01:has,
7:u02:(c),
16:u05:"Prescribed",
8:u06:High,
8:u07:Rule,
8:u01:been,
9:u04:(1).",
6:u05:is,
9:u06:Court,
6:u07:24,
10:u08:filing,
7:u10:(c),
16:u13:"prescribed",
8:u14:high,
9:uI1:-().",
10:uI2:"",(),,
7:u00:has,
7:u01:(c),
16:u04:"Prescribed",
8:u05:High,
8:u06:Rule,
8:u00:been,
9:u03:(1).",
6:u04:is,
9:u05:Court,
6:u06:24,
10:u07:filing,
7:u08:24A,
16:u12:"prescribed",
8:u13:high,
8:u14:rule,
6:u21:"P,
7:u22:"Pr,
8:u23:"Pre,
9:uI0:-().",
10:uI1:"",(),,
8:uI2:,"".,
7:u00:(c),
16:u03:"Prescribed",
8:u04:High,
8:u05:Rule,
15:u08:Subsections,
9:u02:(1).",
6:u03:is,
9:u04:Court,
6:u05:24,
10:u06:filing,
7:u07:24A,
11:u08:Section,
16:u11:"prescribed",
8:u12:high,
8:u13:rule,
6:u14:of,
6:u21:Hi,
7:u22:Hig,
8:u23:High,
10:uI0:"",(),,
8:uI1:,"".,
9:uI2:,,,(),
16:u02:"Prescribed",
8:u03:High,
8:u04:Rule,
9:u08:"(1A),
9:u01:(1).",
6:u02:is,
9:u03:Court,
6:u04:24,
10:u05:filing,
7:u06:24A,
11:u07:Section,
8:u08:(1A),
16:u10:"prescribed",
8:u11:high,
8:u12:rule,
6:u13:of,
6:u21:Ru,
7:u22:Rul,
8:u23:Rule,
8:uI0:,"".,
9:uI1:,,,(),
16:u01:"Prescribed",
8:u02:High,
8:u03:Rule,
15:u07:Subsections,
9:u00:(1).",
6:u01:is,
9:u02:Court,
6:u03:24,
10:u04:filing,
7:u05:24A,
11:u06:Section,
8:u07:(1A),
8:u10:high,
8:u11:rule,
6:u12:of,
5:u14:2,
5:u20:o,
6:u21:of,
6:u22:of,
6:u23:of,
9:uI0:,,,(),
16:u00:"Prescribed",
8:u01:High,
8:u02:Rule,
15:u06:Subsections,
9:u07:"(1A),
11:u08:patent,,
6:u00:is,
9:u01:Court,
6:u02:24,
10:u03:filing,
7:u04:24A,
11:u05:Section,
8:u06:(1A),
17:u08:international,
8:u10:rule,
6:u11:of,
5:u13:2,
15:u14:subsections,
7:uI2:().,
8:u00:High,
8:u01:Rule,
15:u05:Subsections,
9:u06:"(1A),
8:u08:Act,,
9:u00:Court,
6:u01:24,
10:u02:filing,
7:u03:24A,
11:u04:Section,
8:u05:(1A),
17:u07:international,
6:u10:of,
5:u12:2,
15:u13:subsections,
9:u14:"(1a),
5:u21:2,
5:u22:2,
5:u23:2,
7:uI1:().,
9:uI2:()():,
8:u00:Rule,
15:u04:Subsections,
9:u05:"(1A),
11:u07:patent,,
8:u08:(1B),
6:u00:24,
10:u01:filing,
7:u02:24A,
11:u03:Section,
8:u04:(1A),
17:u06:international,
6:u08:if,
5:u11:2,
15:u12:subsections,
9:u13:"(1a),
6:u21:Su,
7:u22:Sub,
8:u23:Subs,
7:uI0:().,
9:uI1:()():,
7:uI2:"(),
15:u03:Subsections,
9:u04:"(1A),
11:u06:patent,,
8:u07:Act,,
10:u00:filing,
7:u01:24A,
11:u02:Section,
8:u03:(1A),
17:u05:international,
6:u07:if,
5:u10:2,
15:u11:subsections,
9:u12:"(1a),
11:u14:patent,,
6:u21:"(,
7:u22:"(1,
8:u23:"(1A,
9:uI0:()():,
7:uI1:"(),
15:u02:Subsections,
9:u03:"(1A),
11:u05:patent,,
8:u06:Act,,
8:u07:(1B),
12:u08:complete,
7:u00:24A,
11:u01:Section,
8:u02:(1A),
17:u04:international,
6:u06:if,
15:u10:subsections,
9:u11:"(1a),
11:u13:patent,,
8:u14:act,,
7:uI0:"(),
15:u01:Subsections,
9:u02:"(1A),
11:u04:patent,,
8:u05:Act,,
8:u06:(1B),
10:u08:office,
11:u00:Section,
8:u01:(1A),
17:u03:international,
6:u05:if,
17:u08:specification,
9:u10:"(1a),
11:u12:patent,,
8:u13:act,,
8:u14:(1b),
6:u21:pa,
7:u22:pat,
8:u23:pate,
15:u00:Subsections,
9:u01:"(1A),
11:u03:patent,,
8:u04:Act,,
8:u05:(1B),
12:u07:complete,
12:u08:Treaty.",
8:u00:(1A),
17:u02:international,
6:u04:if,
17:u07:specification,
9:u08:shall,
11:u11:patent,,
8:u12:act,,
8:u13:(1b),
6:u21:Ac,
7:u22:Act,
8:u23:Act,,
9:u00:"(1A),
11:u02:patent,,
8:u03:Act,,
8:u04:(1B),
12:u06:complete,
10:u07:office,
13:u08:"Priority,
17:u01:international,
6:u03:if,
17:u06:specification,
9:u07:shall,
11:u10:patent,,
8:u11:act,,
8:u12:(1b),
12:u14:complete,
7:u22:(1B,
8:u23:(1B),
7:uI2:-(),
11:u01:patent,,
8:u02:Act,,
8:u03:(1B),
12:u05:complete,
10:u06:office,
12:u07:Treaty.",
17:u00:international,
6:u02:if,
17:u05:specification,
9:u06:shall,
9:u08:date",
8:u10:act,,
8:u11:(1b),
12:u13:complete,
10:u14:office,
7:uI1:-(),
11:u00:patent,,
8:u01:Act,,
8:u02:(1B),
12:u04:complete,
10:u05:office,
12:u06:Treaty.",
13:u07:"Priority,
6:u01:if,
17:u04:specification,
9:u05:shall,
9:u07:date",
8:u10:(1b),
12:u12:complete,
10:u13:office,
12:u14:treaty.",
5:u20:c,
6:u21:co,
7:u22:com,
8:u23:comp,
7:uI0:-(),
8:u00:Act,,
8:u01:(1B),
12:u03:complete,
10:u04:office,
12:u05:Treaty.",
13:u06:"Priority,
8:u08:"11.,
6:u00:if,
17:u03:specification,
9:u04:shall,
9:u06:date",
6:u08:11,
12:u11:complete,
10:u12:office,
12:u13:treaty.",
13:u14:"priority,
7:u22:off,
8:u23:offi,
6:uI2:.",
8:u00:(1B),
12:u02:complete,
10:u03:office,
12:u04:Treaty.",
13:u05:"Priority,
12:u08:Priority,
17:u02:specification,
9:u03:shall,
9:u05:date",
6:u07:11,
12:u10:complete,
10:u11:office,
12:u12:treaty.",
13:u13:"priority,
6:u21:Tr,
7:u22:Tre,
8:u23:Trea,
6:uI1:.",
12:uI2:"",()"".,
12:u01:complete,
10:u02:office,
12:u03:Treaty.",
13:u04:"Priority,
8:u07:"11.,
17:u01:specification,
9:u02:shall,
9:u04:date",
6:u06:11,
9:u08:dates,
10:u10:office,
12:u11:treaty.",
13:u12:"priority,
11:u14:section,
8:u23:"Pri,
6:uI0:.",
12:uI1:"",()"".,
11:uI2:()()(-),
12:u00:complete,
10:u01:office,
12:u02:Treaty.",
13:u03:"Priority,
8:u06:"11.,
12:u07:Priority,
9:u08:*****,
17:u00:specification,
9:u01:shall,
9:u03:date",
6:u05:11,
9:u07:dates,
9:u08:There,
12:u10:treaty.",
13:u11:"priority,
11:u13:section,
8:u14:"11.,
12:uI0:"",()"".,
11:uI1:()()(-),
10:u00:office,
12:u01:Treaty.",
13:u02:"Priority,
8:u05:"11.,
12:u06:Priority,
9:u08:(6)In,
9:u00:shall,
9:u02:date",
6:u04:11,
9:u06:dates,
9:u07:There,
13:u10:"priority,
11:u12:section,
8:u13:"11.,
12:u14:priority,
7:u22:Sec,
8:u23:Sect,
11:uI0:()()(-),
12:u00:Treaty.",
13:u01:"Priority,
8:u04:"11.,
12:u05:Priority,
9:u07:*****,
9:u01:date",
6:u03:11,
9:u05:dates,
9:u06:There,
11:u11:section,
8:u12:"11.,
12:u13:priority,
8:u23:"11.,
13:u00:"Priority,
8:u03:"11.,
12:u04:Priority,
9:u06:*****,
9:u07:(6)In,
9:u00:date",
6:u02:11,
9:u04:dates,
9:u05:There,
5:u08:a,
11:u10:section,
8:u11:"11.,
12:u12:priority,
9:u14:*****,
7:u22:Pri,
8:u23:Prio,
8:u02:"11.,
12:u03:Priority,
9:u05:*****,
9:u06:(6)In,
8:u08:"The,
6:u01:11,
9:u03:dates,
9:u04:There,
5:u07:a,
19:u08:specification.",
8:u10:"11.,
12:u11:priority,
9:u13:*****,
9:u14:(6)in,
9:uI2:*****,
8:u01:"11.,
12:u02:Priority,
9:u04:*****,
9:u05:(6)In,
6:u00:11,
9:u02:dates,
9:u03:There,
5:u06:a,
19:u07:specification.",
8:u08:date,
12:u10:priority,
9:u12:*****,
9:u13:(6)in,
6:u21:**,
7:u22:***,
8:u23:****,
9:uI1:*****,
21:uI2:()-(),(),(),()(),,
6:uI2:17,
8:u00:"11.,
12:u01:Priority,
9:u03:*****,
9:u04:(6)In,
8:u07:"The,
15:u08:necessarily,
9:u01:dates,
9:u02:There,
5:u05:a,
19:u06:specification.",
8:u07:date,
7:u08:for,
9:u11:*****,
9:u12:(6)in,
6:u21:(6,
7:u22:(6),
8:u23:(6)I,
9:uI0:*****,
21:uI1:()-(),(),(),()(),,
6:uI1:17,
12:u00:Priority,
9:u02:*****,
9:u03:(6)In,
8:u06:"The,
9:u00:dates,
9:u01:There,
5:u04:a,
19:u05:specification.",
8:u06:date,
7:u07:for,
7:u08:had,
9:u10:*****,
9:u11:(6)in,
8:u14:"the,
21:uI0:()-(),(),(),()(),,
6:uI0:17,
9:u01:*****,
9:u02:(6)In,
8:u05:"The,
15:u07:necessarily,
9:u00:There,
5:u03:a,
19:u04:specification.",
8:u05:date,
7:u06:for,
7:u07:had,
9:u10:(6)in,
8:u13:"the,
16:u14:applications,
8:uI2:"",,,
9:u00:*****,
9:u01:(6)In,
8:u04:"The,
15:u06:necessarily,
5:u02:a,
19:u03:specification.",
8:u04:date,
7:u05:for,
7:u06:had,
9:u08:title,
8:u12:"the,
16:u13:applications,
15:u14:necessarily,
6:u21:"T,
7:u22:"Th,
8:u23:"The,
8:uI1:"",,,
9:u00:(6)In,
8:u03:"The,
15:u05:necessarily,
5:u01:a,
19:u02:specification.",
8:u03:date,
7:u04:for,
7:u05:had,
9:u07:title,
8:u11:"the,
16:u12:applications,
15:u13:necessarily,
5:u14:3,
8:uI0:"",,,
10:uI2:-()().,
8:u02:"The,
15:u04:necessarily,
11:u08:claims.,
5:u00:a,
19:u01:specification.",
8:u02:date,
7:u03:for,
7:u04:had,
9:u06:title,
5:u08:5,
8:u10:"the,
16:u11:applications,
15:u12:necessarily,
5:u13:3,
5:u14:a,
5:u20:n,
6:u21:ne,
7:u22:nec,
8:u23:nece,
10:uI1:-()().,
7:uI2:()",
8:u01:"The,
15:u03:necessarily,
6:u08:by,
19:u00:specification.",
8:u01:date,
7:u02:for,
7:u03:had,
9:u05:title,
5:u07:5,
16:u10:applications,
15:u11:necessarily,
5:u12:3,
5:u13:a,
5:u21:3,
5:u22:3,
5:u23:3,
10:uI0:-()().,
7:uI1:()",
8:u00:"The,
15:u02:necessarily,
11:u07:claims.,
8:u00:date,
7:u01:for,
7:u02:had,
9:u04:title,
5:u06:5,
10:u08:Claims,
15:u10:necessarily,
5:u11:3,
5:u12:a,
5:u21:a,
5:u22:a,
5:u23:a,
7:uI0:()",
15:u01:necessarily,
11:u06:claims.,
6:u07:by,
6:u08:Of,
7:u00:for,
7:u01:had,
9:u03:title,
5:u05:5,
10:u07:Claims,
16:u08:specifically,
5:u10:3,
5:u11:a,
11:u14:claims.,
15:u00:necessarily,
11:u05:claims.,
6:u06:by,
6:u08:a),
7:u00:had,
9:u02:title,
5:u04:5,
10:u06:Claims,
16:u07:specifically,
10:u08:these,,
5:u10:a,
11:u13:claims.,
6:u14:by,
11:u04:claims.,
6:u05:by,
6:u07:Of,
6:u08:"A,
9:u01:title,
5:u03:5,
10:u05:Claims,
16:u06:specifically,
10:u07:these,,
9:u08:Claim,
11:u12:claims.,
6:u13:by,
6:u21:cl,
7:u22:cla,
8:u23:clai,
11:u03:claims.,
6:u04:by,
6:u06:Of,
6:u07:a),
9:u08:oxide,
9:u00:title,
5:u02:5,
10:u04:Claims,
16:u05:specifically,
10:u06:these,,
9:u07:Claim,
12:u08:compound,
11:u11:claims.,
6:u12:by,
5:u20:b,
6:u21:by,
6:u22:by,
6:u23:by,
11:u02:claims.,
6:u03:by,
6:u05:Of,
6:u06:a),
6:u07:"A,
11:u08:wherein,
5:u01:5,
10:u03:Claims,
16:u04:specifically,
10:u05:these,,
9:u06:Claim,
12:u07:compound,
11:u08:thereof,
11:u10:claims.,
6:u11:by,
6:u14:a),
11:u01:claims.,
6:u02:by,
6:u04:Of,
6:u05:a),
6:u06:"A,
9:u07:oxide,
5:u08:R,
5:u00:5,
10:u02:Claims,
16:u03:specifically,
10:u04:these,,
9:u05:Claim,
12:u06:compound,
11:u07:thereof,
6:u10:by,
6:u13:a),
6:u14:"a,
5:u20:O,
6:u21:Of,
6:u22:Of,
6:u23:Of,
7:uI2:),:,
11:u00:claims.,
6:u01:by,
6:u03:Of,
6:u04:a),
6:u05:"A,
9:u06:oxide,
11:u07:wherein,
10:u01:Claims,
16:u02:specifically,
10:u03:these,,
9:u04:Claim,
12:u05:compound,
11:u06:thereof,
6:u12:a),
6:u13:"a,
9:u14:oxide,
6:u21:a),
6:u22:a),
6:u23:a),
7:uI1:),:,
6:uI2:"-,
6:u00:by,
6:u02:Of,
6:u03:a),
6:u04:"A,
9:u05:oxide,
11:u06:wherein,
5:u07:R,
10:u00:Claims,
16:u01:specifically,
10:u02:these,,
9:u03:Claim,
12:u04:compound,
11:u05:thereof,
6:u11:a),
6:u12:"a,
9:u13:oxide,
11:u14:wherein,
6:u21:"A,
6:u22:"A,
6:u23:"A,
7:uI0:),:,
6:uI1:"-,
6:u01:Of,
6:u02:a),
6:u03:"A,
9:u04:oxide,
11:u05:wherein,
5:u06:R,
16:u00:specifically,
10:u01:these,,
9:u02:Claim,
12:u03:compound,
11:u04:thereof,
6:u10:a),
6:u11:"a,
9:u12:oxide,
11:u13:wherein,
5:u14:r,
6:u21:ox,
7:u22:oxi,
8:u23:oxid,
6:uI0:"-,
6:u00:Of,
6:u01:a),
6:u02:"A,
9:u03:oxide,
11:u04:wherein,
5:u05:R,
10:u00:these,,
9:u01:Claim,
12:u02:compound,
11:u03:thereof,
6:u08:4a,
6:u10:"a,
9:u11:oxide,
11:u12:wherein,
5:u13:r,
6:u21:wh,
7:u22:whe,
8:u23:wher,
7:uI2:,,;,
6:u00:a),
6:u01:"A,
9:u02:oxide,
11:u03:wherein,
5:u04:R,
9:u00:Claim,
12:u01:compound,
11:u02:thereof,
6:u07:4a,
6:u08:4b,
9:u10:oxide,
11:u11:wherein,
5:u12:r,
5:u21:R,
5:u22:R,
5:u23:R,
7:uI1:,,;,
8:uI2:,,,;,
6:u00:"A,
9:u01:oxide,
11:u02:wherein,
5:u03:R,
6:u08:or,
12:u00:compound,
11:u01:thereof,
6:u06:4a,
6:u07:4b,
11:u10:wherein,
5:u11:r,
7:uI0:,,;,
8:uI1:,,,;,
9:u00:oxide,
11:u01:wherein,
5:u02:R,
6:u08:b),
11:u00:thereof,
6:u05:4a,
6:u06:4b,
6:u08:an,
5:u10:r,
8:uI0:,,,;,
6:uI2:-;,
11:u00:wherein,
5:u01:R,
6:u07:or,
6:u04:4a,
6:u05:4b,
6:u07:an,
6:uI1:-;,
5:u00:R,
6:u06:or,
6:u07:b),
6:u03:4a,
6:u04:4b,
6:u06:an,
6:u14:or,
6:uI0:-;,
6:u05:or,
6:u06:b),
9:u08:fully,
6:u02:4a,
6:u03:4b,
6:u05:an,
6:u13:or,
6:u14:b),
6:u04:or,
6:u05:b),
6:u01:4a,
6:u02:4b,
6:u04:an,
6:u12:or,
6:u13:b),
5:u14:4,
6:u21:or,
6:u22:or,
6:u23:or,
6:uI2:):,
6:u03:or,
6:u04:b),
9:u07:fully,
6:u00:4a,
6:u01:4b,
6:u03:an,
6:u08:it,
6:u11:or,
6:u12:b),
5:u13:4,
6:u21:b),
6:u22:b),
6:u23:b),
6:uI1:):,
8:uI2:()"-,
6:u02:or,
6:u03:b),
9:u06:fully,
12:u08:disclose,
6:u00:4b,
6:u02:an,
6:u07:it,
6:u10:or,
6:u11:b),
5:u12:4,
9:u14:fully,
5:u21:4,
5:u22:4,
5:u23:4,
6:uI0:):,
8:uI1:()"-,
6:u01:or,
6:u02:b),
9:u05:fully,
6:u01:an,
6:u06:it,
6:u10:b),
5:u11:4,
9:u13:fully,
9:u14:which,
8:uI0:()"-,
6:u00:or,
6:u01:b),
9:u04:fully,
12:u07:disclose,
6:u00:an,
6:u05:it,
5:u10:4,
9:u12:fully,
9:u13:which,
5:u20:f,
6:u21:fu,
7:u22:ful,
8:u23:full,
6:u00:b),
9:u03:fully,
12:u06:disclose,
7:u08:end,
6:u04:it,
9:u11:fully,
9:u12:which,
12:u14:disclose,
7:u22:whi,
8:u23:whic,
9:u02:fully,
12:u05:disclose,
12:u08:claimed;,
6:u03:it,
9:u10:fully,
9:u11:which,
12:u13:disclose,
9:u01:fully,
12:u04:disclose,
7:u07:end,
7:u08:(d),
6:u02:it,
9:u10:which,
12:u12:disclose,
6:u21:di,
7:u22:dis,
8:u23:disc,
9:u00:fully,
12:u03:disclose,
7:u06:end,
12:u07:claimed;,
6:u08:be,
6:u01:it,
12:u11:disclose,
7:u14:end,
6:u21:fo,
7:u22:for,
7:u23:for,
12:u02:disclose,
7:u05:end,
12:u06:claimed;,
7:u07:(d),
6:u00:it,
15:u08:accompanied,
12:u10:disclose,
7:u13:end,
12:u14:claimed;,
12:u01:disclose,
7:u04:end,
12:u05:claimed;,
7:u06:(d),
6:u07:be,
13:u08:entities,,
15:u07:accompanied,
12:u08:"Markush,
7:u12:end,
12:u13:claimed;,
7:u14:(d),
6:u21:en,
7:u22:end,
7:u23:end,
12:u00:disclose,
7:u03:end,
12:u04:claimed;,
7:u05:(d),
6:u06:be,
14:u08:compounds,,
15:u06:accompanied,
12:u07:"Markush,
11:u08:whether,
7:u11:end,
12:u12:claimed;,
7:u13:(d),
6:u14:be,
7:u02:end,
12:u03:claimed;,
7:u04:(d),
6:u05:be,
13:u07:entities,,
11:u08:several,
15:u05:accompanied,
12:u06:"Markush,
11:u07:whether,
7:u10:end,
12:u11:claimed;,
7:u12:(d),
6:u13:be,
5:u14:5,
6:u21:(d,
7:u22:(d),
7:u23:(d),
6:uI2::",
7:u01:end,
12:u02:claimed;,
7:u03:(d),
6:u04:be,
13:u06:entities,,
14:u07:compounds,,
20:u08:Pharmaceuticals,,
15:u04:accompanied,
12:u05:"Markush,
11:u06:whether,
11:u08:million,
12:u10:claimed;,
7:u11:(d),
6:u12:be,
5:u13:5,
13:u14:entities,,
6:u21:be,
6:u22:be,
6:u23:be,
6:uI1::",
10:uI2:"","",,
7:u00:end,
12:u01:claimed;,
7:u02:(d),
6:u03:be,
13:u05:entities,,
14:u06:compounds,,
11:u07:several,
15:u03:accompanied,
12:u04:"Markush,
11:u05:whether,
11:u07:million,
8:u08:2020,
7:u10:(d),
6:u11:be,
5:u12:5,
13:u13:entities,,
14:u14:compounds,,
5:u21:5,
5:u22:5,
5:u23:5,
6:uI0::",
10:uI1:"","",,
7:uI2:,,",
12:u00:claimed;,
7:u01:(d),
6:u02:be,
13:u04:entities,,
14:u05:compounds,,
11:u06:several,
20:u07:Pharmaceuticals,,
15:u02:accompanied,
12:u03:"Markush,
11:u04:whether,
11:u06:million,
8:u07:2020,
6:u10:be,
5:u11:5,
13:u12:entities,,
14:u13:compounds,,
11:u14:several,
7:u22:ent,
8:u23:enti,
10:uI0:"","",,
7:uI1:,,",
7:u00:(d),
6:u01:be,
13:u03:entities,,
14:u04:compounds,,
11:u05:several,
20:u06:Pharmaceuticals,,
15:u01:accompanied,
12:u02:"Markush,
11:u03:whether,
11:u05:million,
8:u06:2020,
5:u08:6,
5:u10:5,
13:u11:entities,,
14:u12:compounds,,
11:u13:several,
20:u14:pharmaceuticals,,
7:uI0:,,",
10:uI2:()."[.,
6:u00:be,
13:u02:entities,,
14:u03:compounds,,
11:u04:several,
20:u05:Pharmaceuticals,,
12:u08:selected,
15:u00:accompanied,
12:u01:"Markush,
11:u02:whether,
11:u04:million,
8:u05:2020,
5:u07:6,
13:u10:entities,,
14:u11:compounds,,
11:u12:several,
20:u13:pharmaceuticals,,
6:u21:se,
7:u22:sev,
8:u23:seve,
10:uI1:()."[.,
10:uI2:,()()],
13:u01:entities,,
14:u02:compounds,,
11:u03:several,
20:u04:Pharmaceuticals,,
12:u00:"Markush,
11:u01:whether,
11:u03:million,
8:u04:2020,
5:u06:6,
8:u08:from,
14:u10:compounds,,
11:u11:several,
20:u12:pharmaceuticals,,
6:u21:Ph,
7:u22:Pha,
8:u23:Phar,
10:uI0:()."[.,
10:uI1:,()()],
13:u00:entities,,
14:u01:compounds,,
11:u02:several,
20:u03:Pharmaceuticals,,
12:u07:selected,
11:u00:whether,
11:u02:million,
8:u03:2020,
5:u05:6,
8:u07:from,
11:u10:several,
20:u11:pharmaceuticals,,
10:uI0:,()()],
14:u00:compounds,,
11:u01:several,
20:u02:Pharmaceuticals,,
12:u06:selected,
11:u01:million,
8:u02:2020,
5:u04:6,
8:u06:from,
20:u10:pharmaceuticals,,
12:u14:selected,
5:uI2:",
11:u00:several,
20:u01:Pharmaceuticals,,
12:u05:selected,
9:u08:Cl;",,
11:u00:million,
8:u01:2020,
5:u03:6,
8:u05:from,
12:u13:selected,
5:uI1:",
20:u00:Pharmaceuticals,,
12:u04:selected,
6:u08:c),
8:u00:2020,
5:u02:6,
8:u04:from,
12:u12:selected,
7:u22:sel,
8:u23:sele,
5:uI0:",
12:u03:selected,
9:u07:Cl;",,
5:u01:6,
8:u03:from,
12:u11:selected,
12:u02:selected,
9:u06:Cl;",,
6:u07:c),
14:u08:comprising,
5:u00:6,
8:u02:from,
15:u08:composition,
12:u10:selected,
9:u14:cl;",,
12:u01:selected,
9:u05:Cl;",,
6:u06:c),
8:u01:from,
15:u07:composition,
9:u13:cl;",,
6:u14:c),
7:uI2:;",,
12:u00:selected,
9:u04:Cl;",,
6:u05:c),
14:u07:comprising,
7:u08:one,
8:u00:from,
15:u06:composition,
9:u12:cl;",,
6:u13:c),
6:u21:Cl,
7:u22:Cl;,
8:u23:Cl;",
7:uI1:;",,
9:u03:Cl;",,
6:u04:c),
14:u06:comprising,
9:u08:group,
15:u05:composition,
14:u08:additional,
9:u11:cl;",,
6:u12:c),
14:u14:comprising,
6:u21:c),
6:u22:c),
6:u23:c),
7:uI0:;",,
9:u02:Cl;",,
6:u03:c),
14:u05:comprising,
7:u07:one,
15:u04:composition,
14:u07:additional,
14:u08:consisting,
9:u10:cl;",,
6:u11:c),
14:u13:comprising,
12:u14:compound,
9:u01:Cl;",,
6:u02:c),
14:u04:comprising,
7:u06:one,
9:u07:group,
9:u08:(iii),
15:u03:composition,
14:u06:additional,
14:u07:consisting,
10:u08:liquid,
6:u10:c),
14:u12:comprising,
12:u13:compound,
7:u14:one,
9:u00:Cl;",,
6:u01:c),
14:u03:comprising,
7:u05:one,
9:u06:group,
10:u08:stands,
15:u02:composition,
14:u05:additional,
14:u06:consisting,
10:u07:liquid,
9:u08:CTPR,,
14:u11:comprising,
12:u12:compound,
7:u13:one,
9:u14:group,
6:u00:c),
14:u02:comprising,
7:u04:one,
9:u05:group,
9:u07:(iii),
18:u08:specifications,
15:u01:composition,
14:u04:additional,
14:u05:consisting,
10:u06:liquid,
9:u07:CTPR,,
14:u10:comprising,
12:u11:compound,
7:u12:one,
9:u13:group,
7:u14:and,
6:u21:on,
7:u22:one,
7:u23:one,
14:u01:comprising,
7:u03:one,
9:u04:group,
9:u06:(iii),
10:u07:stands,
10:u08:under:,
15:u00:composition,
14:u03:additional,
14:u04:consisting,
10:u05:liquid,
9:u06:CTPR,,
12:u10:compound,
7:u11:one,
9:u12:group,
7:u13:and,
9:u14:(iii),
7:u22:gro,
8:u23:grou,
14:u00:comprising,
7:u02:one,
9:u03:group,
9:u05:(iii),
10:u06:stands,
18:u07:specifications,
12:u08:"EXAMPLE,
14:u02:additional,
14:u03:consisting,
10:u04:liquid,
9:u05:CTPR,,
7:u10:one,
9:u11:group,
7:u12:and,
9:u13:(iii),
10:u14:stands,
7:u22:and,
7:u23:and,
7:u01:one,
9:u02:group,
9:u04:(iii),
10:u05:stands,
18:u06:specifications,
10:u07:under:,
15:u08:Preparation,
14:u01:additional,
14:u02:consisting,
10:u03:liquid,
9:u04:CTPR,,
9:u10:group,
7:u11:and,
9:u12:(iii),
10:u13:stands,
18:u14:specifications,
8:u23:(iii,
7:u00:one,
9:u01:group,
9:u03:(iii),
10:u04:stands,
18:u05:specifications,
10:u06:under:,
12:u07:"EXAMPLE,
14:u00:additional,
14:u01:consisting,
10:u02:liquid,
9:u03:CTPR,,
7:u10:and,
9:u11:(iii),
10:u12:stands,
18:u13:specifications,
10:u14:under:,
6:u21:st,
7:u22:sta,
8:u23:stan,
9:u00:group,
9:u02:(iii),
10:u03:stands,
18:u04:specifications,
10:u05:under:,
12:u06:"EXAMPLE,
15:u07:Preparation,
17:u08:-2-pyridinyl),
14:u00:consisting,
10:u01:liquid,
9:u02:CTPR,,
19:u08:-[(methylamino),
9:u10:(iii),
10:u11:stands,
18:u12:specifications,
10:u13:under:,
12:u14:"example,
6:u21:sp,
7:u22:spe,
8:u23:spec,
9:u01:(iii),
10:u02:stands,
18:u03:specifications,
10:u04:under:,
12:u05:"EXAMPLE,
15:u06:Preparation,
10:u00:liquid,
9:u01:CTPR,,
19:u07:-[(methylamino),
7:u08:-1H,
10:u10:stands,
18:u11:specifications,
10:u12:under:,
12:u13:"example,
15:u14:preparation,
5:u20:u,
6:u21:un,
7:u22:und,
8:u23:unde,
9:u00:(iii),
10:u01:stands,
18:u02:specifications,
10:u03:under:,
12:u04:"EXAMPLE,
15:u05:Preparation,
17:u07:-2-pyridinyl),
9:u00:CTPR,,
19:u06:-[(methylamino),
7:u07:-1H,
18:u10:specifications,
10:u11:under:,
12:u12:"example,
15:u13:preparation,
5:u14:6,
6:u21:"E,
7:u22:"EX,
8:u23:"EXA,
12:uI2:---[----,
10:u00:stands,
18:u01:specifications,
10:u02:under:,
12:u03:"EXAMPLE,
15:u04:Preparation,
17:u06:-2-pyridinyl),
6:u08:To,
19:u05:-[(methylamino),
7:u06:-1H,
5:u08:7,
10:u10:under:,
12:u11:"example,
15:u12:preparation,
5:u13:6,
17:u14:-2-pyridinyl),
7:u22:Pre,
8:u23:Prep,
12:uI1:---[----,
14:uI2:-[()]]--(-,
18:u00:specifications,
10:u01:under:,
12:u02:"EXAMPLE,
15:u03:Preparation,
17:u05:-2-pyridinyl),
14:u08:pyridinyl),
19:u04:-[(methylamino),
7:u05:-1H,
5:u07:7,
12:u10:"example,
15:u11:preparation,
5:u12:6,
17:u13:-2-pyridinyl),
5:u21:6,
5:u22:6,
5:u23:6,
12:uI0:---[----,
14:uI1:-[()]]--(-,
11:uI2:--)----,
10:u00:under:,
12:u01:"EXAMPLE,
15:u02:Preparation,
17:u04:-2-pyridinyl),
6:u07:To,
10:u08:methyl,
19:u03:-[(methylamino),
7:u04:-1H,
5:u06:7,
7:u08:-lH,
15:u10:preparation,
5:u11:6,
17:u12:-2-pyridinyl),
5:u20:-,
6:u21:-2,
7:u22:-2-,
8:u23:-2-p,
14:uI0:-[()]]--(-,
11:uI1:--)----,
12:u00:"EXAMPLE,
15:u01:Preparation,
17:u03:-2-pyridinyl),
6:u06:To,
14:u07:pyridinyl),
17:u08:benzoxazinone,
19:u02:-[(methylamino),
7:u03:-1H,
5:u05:7,
7:u07:-lH,
7:u08:-4H,
5:u10:6,
17:u11:-2-pyridinyl),
6:u14:to,
11:uI0:--)----,
15:u00:Preparation,
17:u02:-2-pyridinyl),
6:u05:To,
14:u06:pyridinyl),
10:u07:methyl,
8:u08:0.44,
19:u01:-[(methylamino),
7:u02:-1H,
5:u04:7,
7:u06:-lH,
7:u07:-4H,
11:u08:product,
17:u10:-2-pyridinyl),
6:u13:to,
14:u14:pyridinyl),
13:uI2:-[---(---,
17:u01:-2-pyridinyl),
6:u04:To,
14:u05:pyridinyl),
10:u06:methyl,
17:u07:benzoxazinone,
8:u08:(2.0,
19:u00:-[(methylamino),
7:u01:-1H,
5:u03:7,
7:u05:-lH,
7:u06:-4H,
11:u07:product,
9:u08:mmol),
6:u12:to,
14:u13:pyridinyl),
10:u14:methyl,
6:u21:To,
6:u22:To,
6:u23:To,
13:uI1:-[---(---,
14:uI2:)----]----,
17:u00:-2-pyridinyl),
6:u03:To,
14:u04:pyridinyl),
10:u05:methyl,
17:u06:benzoxazinone,
8:u07:0.44,
7:u00:-1H,
5:u02:7,
7:u04:-lH,
7:u05:-4H,
11:u06:product,
9:u07:mmol),
5:u08:M,
6:u11:to,
14:u12:pyridinyl),
10:u13:methyl,
17:u14:benzoxazinone,
6:u21:py,
7:u22:pyr,
8:u23:pyri,
13:uI0:-[---(---,
14:uI1:)----]----,
13:uI2:--,---(..,
6:u02:To,
14:u03:pyridinyl),
10:u04:methyl,
17:u05:benzoxazinone,
8:u06:0.44,
8:u07:(2.0,
5:u01:7,
7:u03:-lH,
7:u04:-4H,
11:u05:product,
9:u06:mmol),
5:u07:M,
12:u08:reaction,
6:u10:to,
14:u11:pyridinyl),
10:u12:methyl,
17:u13:benzoxazinone,
8:u14:0.44,
6:u21:me,
7:u22:met,
8:u23:meth,
14:uI0:)----]----,
13:uI1:--,---(..,
9:uI2:,)(.,,
6:u01:To,
14:u02:pyridinyl),
10:u03:methyl,
17:u04:benzoxazinone,
8:u05:0.44,
8:u06:(2.0,
5:u00:7,
7:u02:-lH,
7:u03:-4H,
11:u04:product,
9:u05:mmol),
5:u06:M,
12:u07:reaction,
8:u08:then,
14:u10:pyridinyl),
10:u11:methyl,
17:u12:benzoxazinone,
8:u13:0.44,
8:u14:(2.0,
7:u22:ben,
8:u23:benz,
13:uI0:--,---(..,
9:uI1:,)(.,,
6:uI2:.),
6:u00:To,
14:u01:pyridinyl),
10:u02:methyl,
17:u03:benzoxazinone,
8:u04:0.44,
8:u05:(2.0,
19:u08:tetrahydrofuran,
7:u01:-lH,
7:u02:-4H,
11:u03:product,
9:u04:mmol),
5:u05:M,
12:u06:reaction,
8:u07:then,
10:u10:methyl,
17:u11:benzoxazinone,
8:u12:0.44,
8:u13:(2.0,
6:u21:0.,
7:u22:0.4,
8:u23:0.44,
9:uI0:,)(.,,
6:uI1:.),
12:uI2:(.,.,.),,
14:u00:pyridinyl),
10:u01:methyl,
17:u02:benzoxazinone,
8:u03:0.44,
8:u04:(2.0,
13:u08:pressure,,
7:u00:-lH,
7:u01:-4H,
11:u02:product,
9:u03:mmol),
5:u04:M,
12:u05:reaction,
8:u06:then,
11:u08:solvent,
17:u10:benzoxazinone,
8:u11:0.44,
8:u12:(2.0,
7:u22:(2.,
8:u23:(2.0,
6:uI0:.),
12:uI1:(.,.,.),,
10:u00:methyl,
17:u01:benzoxazinone,
8:u02:0.44,
8:u03:(2.0,
19:u07:tetrahydrofuran,
10:u08:ether,,
7:u00:-4H,
11:u01:product,
9:u02:mmol),
5:u03:M,
12:u04:reaction,
8:u05:then,
11:u07:solvent,
8:u10:0.44,
8:u11:(2.0,
12:uI0:(.,.,.),,
17:u00:benzoxazinone,
8:u01:0.44,
8:u02:(2.0,
19:u06:tetrahydrofuran,
13:u07:pressure,,
11:u00:product,
9:u01:mmol),
5:u02:M,
12:u03:reaction,
8:u04:then,
11:u06:solvent,
13:u08:filtered,,
8:u10:(2.0,
19:u14:tetrahydrofuran,
8:u00:0.44,
8:u01:(2.0,
19:u05:tetrahydrofuran,
13:u06:pressure,,
10:u07:ether,,
8:u08:m.p.,
9:u00:mmol),
5:u01:M,
12:u02:reaction,
8:u03:then,
11:u05:solvent,
13:u07:filtered,,
19:u13:tetrahydrofuran,
13:u14:pressure,,
8:u00:(2.0,
19:u04:tetrahydrofuran,
13:u05:pressure,,
10:u06:ether,,
8:u08:(iv),
5:u00:M,
12:u01:reaction,
8:u02:then,
11:u04:solvent,
13:u06:filtered,,
11:u08:162-164,
19:u12:tetrahydrofuran,
13:u13:pressure,,
10:u14:ether,,
6:u21:te,
7:u22:tet,
8:u23:tetr,
19:u03:tetrahydrofuran,
13:u04:pressure,,
10:u05:ether,,
8:u07:m.p.,
12:u08:radicals,
12:u00:reaction,
8:u01:then,
11:u03:solvent,
13:u05:filtered,,
11:u07:162-164,
9:u08:Thus,,
19:u11:tetrahydrofuran,
13:u12:pressure,,
10:u13:ether,,
6:u21:pr,
7:u22:pre,
8:u23:pres,
19:u02:tetrahydrofuran,
13:u03:pressure,,
10:u04:ether,,
8:u06:m.p.,
8:u07:(iv),
8:u00:then,
11:u02:solvent,
13:u04:filtered,,
11:u06:162-164,
9:u07:Thus,,
19:u10:tetrahydrofuran,
13:u11:pressure,,
10:u12:ether,,
8:u14:m.p.,
6:u21:et,
7:u22:eth,
8:u23:ethe,
8:uI2:,(),,
19:u01:tetrahydrofuran,
13:u02:pressure,,
10:u03:ether,,
8:u05:m.p.,
8:u06:(iv),
12:u07:radicals,
11:u01:solvent,
13:u03:filtered,,
11:u05:162-164,
9:u06:Thus,,
10:u08:actual,
13:u10:pressure,,
10:u11:ether,,
8:u13:m.p.,
8:u14:(iv),
8:uI1:,(),,
9:uI2:..-.",
19:u00:tetrahydrofuran,
13:u01:pressure,,
10:u02:ether,,
8:u04:m.p.,
8:u05:(iv),
12:u06:radicals,
8:u08:CTPR,
11:u00:solvent,
13:u02:filtered,,
11:u04:162-164,
9:u05:Thus,,
10:u07:actual,
10:u10:ether,,
8:u12:m.p.,
8:u13:(iv),
12:u14:radicals,
6:u21:m.,
7:u22:m.p,
8:u23:m.p.,
8:uI0:,(),,
9:uI1:..-.",
8:uI2:(),,,
13:u00:pressure,,
10:u01:ether,,
8:u03:m.p.,
8:u04:(iv),
12:u05:radicals,
15:u08:exemplified,
13:u01:filtered,,
11:u03:162-164,
9:u04:Thus,,
10:u06:actual,
7:u08:is,,
8:u11:m.p.,
8:u12:(iv),
12:u13:radicals,
7:u22:(iv,
8:u23:(iv),
9:uI0:..-.",
8:uI1:(),,,
10:u00:ether,,
8:u02:m.p.,
8:u03:(iv),
12:u04:radicals,
8:u07:CTPR,
8:u08:this,
13:u00:filtered,,
11:u02:162-164,
9:u03:Thus,,
10:u05:actual,
7:u07:is,,
8:u10:m.p.,
8:u11:(iv),
12:u12:radicals,
9:u14:ctpr,,
6:u21:ra,
7:u22:rad,
8:u23:radi,
8:uI0:(),,,
8:u01:m.p.,
8:u02:(iv),
12:u03:radicals,
8:u06:CTPR,
15:u07:exemplified,
11:u08:pyridyl,
11:u01:162-164,
9:u02:Thus,,
10:u04:actual,
7:u06:is,,
13:u08:position.,
8:u10:(iv),
12:u11:radicals,
9:u13:ctpr,,
8:u14:ctpr,
7:uI2:,'.,
8:u00:m.p.,
8:u01:(iv),
12:u02:radicals,
8:u05:CTPR,
15:u06:exemplified,
8:u07:this,
13:u08:compounds,
11:u00:162-164,
9:u01:Thus,,
10:u03:actual,
7:u05:is,,
13:u07:position.,
9:u08:ring,,
12:u10:radicals,
9:u12:ctpr,,
8:u13:ctpr,
15:u14:exemplified,
6:u21:CT,
7:u22:CTP,
8:u23:CTPR,
7:uI1:,'.,
8:u00:(iv),
12:u01:radicals,
8:u04:CTPR,
15:u05:exemplified,
8:u06:this,
11:u07:pyridyl,
16:u08:insecticidal,
9:u00:Thus,,
10:u02:actual,
7:u04:is,,
13:u06:position.,
9:u07:ring,,
9:u11:ctpr,,
8:u12:ctpr,
15:u13:exemplified,
7:uI0:,'.,
12:u00:radicals,
8:u03:CTPR,
15:u04:exemplified,
8:u05:this,
11:u06:pyridyl,
13:u07:compounds,
12:u08:Examples,
10:u01:actual,
7:u03:is,,
13:u05:position.,
9:u06:ring,,
12:u08:activity,
9:u10:ctpr,,
8:u11:ctpr,
15:u12:exemplified,
11:u14:pyridyl,
6:u21:ex,
7:u22:exe,
8:u23:exem,
8:uI2:.---,
8:u02:CTPR,
15:u03:exemplified,
8:u04:this,
11:u05:pyridyl,
13:u06:compounds,
16:u07:insecticidal,
11:u08:asserts,
10:u00:actual,
7:u02:is,,
13:u04:position.,
9:u05:ring,,
12:u07:activity,
8:u10:ctpr,
15:u11:exemplified,
11:u13:pyridyl,
13:u14:compounds,
7:u22:thi,
8:u23:this,
8:uI1:.---,
8:u01:CTPR,
15:u02:exemplified,
8:u03:this,
11:u04:pyridyl,
13:u05:compounds,
16:u06:insecticidal,
12:u07:Examples,
7:u08:are,
7:u01:is,,
13:u03:position.,
9:u04:ring,,
12:u06:activity,
15:u10:exemplified,
11:u12:pyridyl,
13:u13:compounds,
16:u14:insecticidal,
8:uI0:.---,
8:u00:CTPR,
15:u01:exemplified,
8:u02:this,
11:u03:pyridyl,
13:u04:compounds,
16:u05:insecticidal,
12:u06:Examples,
11:u07:asserts,
7:u00:is,,
13:u02:position.,
9:u03:ring,,
12:u05:activity,
9:u08:first,
11:u11:pyridyl,
13:u12:compounds,
16:u13:insecticidal,
12:u14:examples,
15:u00:exemplified,
8:u01:this,
11:u02:pyridyl,
13:u03:compounds,
16:u04:insecticidal,
12:u05:Examples,
11:u06:asserts,
7:u07:are,
13:u08:activates,
13:u01:position.,
9:u02:ring,,
12:u04:activity,
9:u07:first,
13:u08:ryanodine,
11:u10:pyridyl,
13:u11:compounds,
16:u12:insecticidal,
12:u13:examples,
11:u14:asserts,
7:u22:ins,
8:u23:inse,
7:uI2:",.,
8:u00:this,
11:u01:pyridyl,
13:u02:compounds,
16:u03:insecticidal,
12:u04:Examples,
11:u05:asserts,
7:u06:are,
11:u08:release,
13:u00:position.,
9:u01:ring,,
12:u03:activity,
9:u06:first,
13:u07:ryanodine,
13:u10:compounds,
16:u11:insecticidal,
12:u12:examples,
11:u13:asserts,
7:u14:are,
6:u21:Ex,
7:u22:Exa,
8:u23:Exam,
7:uI1:",.,
5:uI2:',
11:u00:pyridyl,
13:u01:compounds,
16:u02:insecticidal,
12:u03:Examples,
11:u04:asserts,
7:u05:are,
13:u07:activates,
10:u08:muscle,
9:u00:ring,,
12:u02:activity,
9:u05:first,
13:u06:ryanodine,
16:u10:insecticidal,
12:u11:examples,
11:u12:asserts,
7:u13:are,
6:u21:as,
7:u22:ass,
8:u23:asse,
7:uI0:",.,
5:uI1:',
13:u00:compounds,
16:u01:insecticidal,
12:u02:Examples,
11:u03:asserts,
7:u04:are,
13:u06:activates,
11:u07:release,
12:u01:activity,
9:u04:first,
13:u05:ryanodine,
10:u08:cells,,
12:u10:examples,
11:u11:asserts,
7:u12:are,
13:u14:activates,
6:u21:ar,
7:u22:are,
7:u23:are,
5:uI0:',
7:uI2:.,,,
16:u00:insecticidal,
12:u01:Examples,
11:u02:asserts,
7:u03:are,
13:u05:activates,
11:u06:release,
10:u07:muscle,
12:u00:activity,
9:u03:first,
13:u04:ryanodine,
10:u07:cells,,
11:u10:asserts,
7:u11:are,
13:u13:activates,
11:u14:release,
7:uI1:.,,,
12:u00:Examples,
11:u01:asserts,
7:u02:are,
13:u04:activates,
11:u05:release,
10:u06:muscle,
10:u08:death.,
9:u02:first,
13:u03:ryanodine,
10:u06:cells,,
5:u08:8,
7:u10:are,
13:u12:activates,
11:u13:release,
10:u14:muscle,
6:u21:ac,
7:u22:act,
8:u23:acti,
7:uI0:.,,,
11:u00:asserts,
7:u01:are,
13:u03:activates,
11:u04:release,
10:u05:muscle,
9:u01:first,
13:u02:ryanodine,
10:u05:cells,,
5:u07:8,
13:u11:activates,
11:u12:release,
10:u13:muscle,
8:u23:rele,
7:u00:are,
13:u02:activates,
11:u03:release,
10:u04:muscle,
10:u07:death.,
13:u08:mammalian,
9:u00:first,
13:u01:ryanodine,
10:u04:cells,,
5:u06:8,
13:u10:activates,
11:u11:release,
10:u12:muscle,
6:u21:mu,
7:u22:mus,
8:u23:musc,
13:u01:activates,
11:u02:release,
10:u03:muscle,
10:u06:death.,
7:u08:(v),
13:u00:ryanodine,
10:u03:cells,,
5:u05:8,
13:u08:toxicity.,
11:u10:release,
10:u11:muscle,
10:u14:death.,
13:u00:activates,
11:u01:release,
10:u02:muscle,
10:u05:death.,
13:u07:mammalian,
10:u08:expire,
10:u02:cells,,
5:u04:8,
13:u07:toxicity.,
10:u10:muscle,
10:u13:death.,
11:u14:against,
11:u00:release,
10:u01:muscle,
10:u04:death.,
13:u06:mammalian,
7:u07:(v),
11:u08:August,,
10:u01:cells,,
5:u03:8,
13:u06:toxicity.,
10:u12:death.,
11:u13:against,
13:u14:mammalian,
6:u21:de,
7:u22:dea,
8:u23:deat,
10:u00:muscle,
10:u03:death.,
13:u05:mammalian,
7:u06:(v),
10:u07:expire,
14:u08:post-grant,
10:u00:cells,,
5:u02:8,
13:u05:toxicity.,
9:u08:2002,,
10:u11:death.,
11:u12:against,
13:u13:mammalian,
7:u14:(v),
6:u21:ag,
7:u22:aga,
8:u23:agai,
10:u02:death.,
13:u04:mammalian,
7:u05:(v),
10:u06:expire,
11:u07:August,,
13:u08:including,
5:u01:8,
13:u04:toxicity.,
9:u07:2002,,
15:u08:opposition,,
10:u10:death.,
11:u11:against,
13:u12:mammalian,
7:u13:(v),
10:u14:expire,
7:u22:mam,
8:u23:mamm,
8:uI2:()',,
10:u01:death.,
13:u03:mammalian,
7:u04:(v),
10:u05:expire,
11:u06:August,,
14:u07:post-grant,
5:u00:8,
13:u03:toxicity.,
9:u06:2002,,
15:u07:opposition,,
11:u10:against,
13:u11:mammalian,
7:u12:(v),
10:u13:expire,
11:u14:august,,
6:u21:(v,
7:u22:(v),
7:u23:(v),
8:uI1:()',,
6:uI2:,(,
10:u00:death.,
13:u02:mammalian,
7:u03:(v),
10:u04:expire,
11:u05:August,,
14:u06:post-grant,
13:u07:including,
16:u08:counterparts,
13:u02:toxicity.,
9:u05:2002,,
15:u06:opposition,,
10:u08:plaint,
13:u10:mammalian,
7:u11:(v),
10:u12:expire,
11:u13:august,,
14:u14:post-grant,
7:u22:exp,
8:u23:expi,
8:uI0:()',,
6:uI1:,(,
9:uI2:,,).-,
13:u01:mammalian,
7:u02:(v),
10:u03:expire,
11:u04:August,,
14:u05:post-grant,
13:u06:including,
14:u08:countries,,
13:u01:toxicity.,
9:u04:2002,,
15:u05:opposition,,
10:u07:plaint,
7:u10:(v),
10:u11:expire,
11:u12:august,,
14:u13:post-grant,
13:u14:including,
6:u21:Au,
7:u22:Aug,
8:u23:Augu,
6:uI0:,(,
9:uI1:,,).-,
8:uI2:-,,,,
13:u00:mammalian,
7:u01:(v),
10:u02:expire,
11:u03:August,,
14:u04:post-grant,
13:u05:including,
16:u07:counterparts,
12:u08:Colombia,
13:u00:toxicity.,
9:u03:2002,,
15:u04:opposition,,
10:u06:plaint,
10:u10:expire,
11:u11:august,,
14:u12:post-grant,
13:u13:including,
6:u21:po,
7:u22:pos,
8:u23:post,
9:uI0:,,).-,
8:uI1:-,,,,
7:u00:(v),
10:u01:expire,
11:u02:August,,
14:u03:post-grant,
13:u04:including,
16:u06:counterparts,
14:u07:countries,,
8:u08:suit,
9:u02:2002,,
15:u03:opposition,,
10:u05:plaint,
9:u08:being,
11:u10:august,,
14:u11:post-grant,
13:u12:including,
16:u14:counterparts,
7:u22:inc,
8:u23:incl,
8:uI0:-,,,,
10:u00:expire,
11:u01:August,,
14:u02:post-grant,
13:u03:including,
16:u05:counterparts,
14:u06:countries,,
12:u07:Colombia,
8:u08:(vi),
9:u01:2002,,
15:u02:opposition,,
10:u04:plaint,
9:u07:being,
10:u08:patent,
14:u10:post-grant,
13:u11:including,
16:u13:counterparts,
14:u14:countries,,
11:u00:August,,
14:u01:post-grant,
13:u02:including,
16:u04:counterparts,
14:u05:countries,,
12:u06:Colombia,
8:u07:suit,
12:u08:January,,
9:u00:2002,,
15:u01:opposition,,
10:u03:plaint,
9:u06:being,
10:u07:patent,
11:u08:IN'332,,
13:u10:including,
16:u12:counterparts,
14:u13:countries,,
12:u14:colombia,
7:u22:cou,
8:u23:coun,
14:u00:post-grant,
13:u01:including,
16:u03:counterparts,
14:u04:countries,,
12:u05:Colombia,
8:u06:suit,
8:u07:(vi),
15:u00:opposition,,
10:u02:plaint,
9:u05:being,
10:u06:patent,
11:u07:IN'332,,
9:u08:2004,,
16:u11:counterparts,
14:u12:countries,,
12:u13:colombia,
8:u14:suit,
13:u00:including,
16:u02:counterparts,
14:u03:countries,,
12:u04:Colombia,
8:u05:suit,
8:u06:(vi),
12:u07:January,,
10:u01:plaint,
9:u04:being,
10:u05:patent,
11:u06:IN'332,,
9:u07:2004,,
6:u08:27,
16:u10:counterparts,
14:u11:countries,,
12:u12:colombia,
8:u13:suit,
8:u14:(vi),
7:u22:Col,
8:u23:Colo,
16:u01:counterparts,
14:u02:countries,,
12:u03:Colombia,
8:u04:suit,
8:u05:(vi),
12:u06:January,,
10:u00:plaint,
9:u03:being,
10:u04:patent,
11:u05:IN'332,,
9:u06:2004,,
6:u07:27,
14:u10:countries,,
12:u11:colombia,
8:u12:suit,
8:u13:(vi),
12:u14:january,,
7:u22:sui,
8:u23:suit,
9:uI2:()',,,
16:u00:counterparts,
14:u01:countries,,
12:u02:Colombia,
8:u03:suit,
8:u04:(vi),
12:u05:January,,
9:u02:being,
10:u03:patent,
11:u04:IN'332,,
9:u05:2004,,
6:u06:27,
12:u10:colombia,
8:u11:suit,
8:u12:(vi),
12:u13:january,,
6:u14:on,
7:u22:(vi,
8:u23:(vi),
9:uI1:()',,,
14:u00:countries,,
12:u01:Colombia,
8:u02:suit,
8:u03:(vi),
12:u04:January,,
13:u08:preparing,
9:u01:being,
10:u02:patent,
11:u03:IN'332,,
9:u04:2004,,
6:u05:27,
7:u08:661,
8:u10:suit,
8:u11:(vi),
12:u12:january,,
6:u13:on,
6:u21:Ja,
7:u22:Jan,
8:u23:Janu,
9:uI0:()',,,
7:uI2:,.,,
12:u00:Colombia,
8:u01:suit,
8:u02:(vi),
12:u03:January,,
9:u00:being,
10:u01:patent,
11:u02:IN'332,,
9:u03:2004,,
6:u04:27,
7:u07:661,
8:u10:(vi),
12:u11:january,,
6:u12:on,
8:u14:2001,
6:u22:on,
6:u23:on,
7:uI1:,.,,
8:uI2:',,,,
8:u00:suit,
8:u01:(vi),
12:u02:January,,
13:u07:preparing,
10:u00:patent,
11:u01:IN'332,,
9:u02:2004,,
6:u03:27,
7:u06:661,
11:u08:process,
12:u10:january,,
6:u11:on,
8:u13:2001,
7:uI0:,.,,
8:uI1:',,,,
8:u00:(vi),
12:u01:January,,
13:u06:preparing,
15:u08:preparation,
11:u00:IN'332,,
9:u01:2004,,
6:u02:27,
7:u05:661,
11:u07:process,
6:u10:on,
8:u12:2001,
13:u14:preparing,
6:u21:20,
7:u22:200,
8:u23:2001,
8:uI0:',,,,
12:u00:January,,
13:u05:preparing,
14:u08:processual,
9:u00:2004,,
6:u01:27,
7:u04:661,
11:u06:process,
8:u11:2001,
13:u13:preparing,
13:u04:preparing,
15:u07:preparation,
6:u00:27,
7:u03:661,
11:u05:process,
9:u08:steps,
8:u10:2001,
13:u12:preparing,
8:u23:prep,
6:uI2:'.,
13:u03:preparing,
15:u06:preparation,
14:u07:processual,
7:u02:661,
11:u04:process,
9:u07:steps,
13:u11:preparing,
6:uI1:'.,
13:u02:preparing,
15:u05:preparation,
14:u06:processual,
10:u08:IN'332,
7:u01:661,
11:u03:process,
9:u06:steps,
5:u08:9,
13:u10:preparing,
14:u14:processual,
6:uI0:'.,
13:u01:preparing,
15:u04:preparation,
14:u05:processual,
9:u08:years,
7:u00:661,
11:u02:process,
9:u05:steps,
5:u07:9,
14:u13:processual,
13:u00:preparing,
15:u03:preparation,
14:u04:processual,
10:u07:IN'332,
9:u08:(vii),
11:u01:process,
9:u04:steps,
5:u06:9,
14:u12:processual,
7:u22:pro,
8:u23:proc,
15:u02:preparation,
14:u03:processual,
10:u06:IN'332,
9:u07:years,
12:u08:relation,
11:u00:process,
9:u03:steps,
5:u05:9,
6:u08:No,
14:u11:processual,
10:u14:in'332,
15:u01:preparation,
14:u02:processual,
10:u05:IN'332,
9:u06:years,
9:u07:(vii),
9:u02:steps,
5:u04:9,
6:u07:No,
14:u10:processual,
10:u13:in'332,
9:u14:years,
7:uI2:',,,
15:u00:preparation,
14:u01:processual,
10:u04:IN'332,
9:u05:years,
9:u06:(vii),
12:u07:relation,
8:u08:have,
9:u01:steps,
5:u03:9,
6:u06:No,
11:u08:granted,
10:u12:in'332,
9:u13:years,
9:u14:(vii),
7:u22:IN',
8:u23:IN'3,
7:uI1:',,,
14:u00:processual,
10:u03:IN'332,
9:u04:years,
9:u05:(vii),
12:u06:relation,
10:u08:(viii),
9:u00:steps,
5:u02:9,
6:u05:No,
11:u07:granted,
8:u08:they,
10:u11:in'332,
9:u12:years,
9:u13:(vii),
12:u14:relation,
5:u20:y,
6:u21:ye,
7:u22:yea,
8:u23:year,
7:uI0:',,,
8:uI2:()--,
10:u02:IN'332,
9:u03:years,
9:u04:(vii),
12:u05:relation,
8:u07:have,
5:u01:9,
6:u04:No,
11:u06:granted,
8:u07:they,
10:u08:Having,
10:u10:in'332,
9:u11:years,
9:u12:(vii),
12:u13:relation,
8:u14:been,
8:u23:(vii,
8:uI1:()--,
8:uI2:'.,',
10:u01:IN'332,
9:u02:years,
9:u03:(vii),
12:u04:relation,
8:u06:have,
10:u07:(viii),
5:u00:9,
6:u03:No,
11:u05:granted,
8:u06:they,
10:u07:Having,
9:u10:years,
9:u11:(vii),
12:u12:relation,
8:u13:been,
8:u14:have,
8:uI0:()--,
8:uI1:'.,',
10:u00:IN'332,
9:u01:years,
9:u02:(vii),
12:u03:relation,
8:u05:have,
10:u06:(viii),
6:u02:No,
11:u04:granted,
8:u05:they,
10:u06:Having,
10:u08:short),
9:u10:(vii),
12:u11:relation,
8:u12:been,
8:u13:have,
10:u14:(viii),
7:u22:bee,
8:u23:been,
8:uI0:'.,',
9:u00:years,
9:u01:(vii),
12:u02:relation,
8:u04:have,
10:u05:(viii),
6:u01:No,
11:u03:granted,
8:u04:they,
10:u05:Having,
10:u07:short),
12:u10:relation,
8:u11:been,
8:u12:have,
10:u13:(viii),
10:u14:in'307,
7:u22:hav,
8:u23:have,
9:u00:(vii),
12:u01:relation,
8:u03:have,
10:u04:(viii),
6:u00:No,
11:u02:granted,
8:u03:they,
10:u04:Having,
10:u06:short),
8:u10:been,
8:u11:have,
10:u12:(viii),
10:u13:in'307,
11:uI2:'',("'",
12:u00:relation,
8:u02:have,
10:u03:(viii),
11:u01:granted,
8:u02:they,
10:u03:Having,
10:u05:short),
9:u08:novel,
8:u10:have,
10:u11:(viii),
10:u12:in'307,
11:uI1:'',("'",
7:uI2:),,,
8:u01:have,
10:u02:(viii),
11:u00:granted,
8:u01:they,
10:u02:Having,
10:u04:short),
9:u07:novel,
9:u08:falls,
10:u10:(viii),
10:u11:in'307,
11:uI0:'',("'",
7:uI1:),,,
7:uI2:.',,
8:u00:have,
10:u01:(viii),
12:u08:formula,,
8:u00:they,
10:u01:Having,
10:u03:short),
9:u06:novel,
9:u07:falls,
10:u10:in'307,
7:uI0:),,,
7:uI1:.',,
10:u00:(viii),
12:u08:asserts,,
10:u00:Having,
10:u02:short),
9:u05:novel,
9:u06:falls,
13:u08:disclosed,
7:uI0:.',,
12:u07:formula,,
10:u01:short),
9:u04:novel,
9:u05:falls,
13:u07:disclosed,
6:u14:is,
12:u06:formula,,
12:u07:asserts,,
10:u00:short),
9:u03:novel,
9:u04:falls,
13:u06:disclosed,
6:u13:is,
12:u14:formula,,
12:u05:formula,,
12:u06:asserts,,
9:u02:novel,
9:u03:falls,
13:u05:disclosed,
8:u08:able,
6:u12:is,
12:u13:formula,,
12:u14:asserts,,
6:u21:is,
6:u22:is,
6:u23:is,
7:uI2:,',,
12:u04:formula,,
12:u05:asserts,,
8:u08:(ix),
9:u01:novel,
9:u02:falls,
13:u04:disclosed,
8:u07:able,
11:u08:IN'978.,
6:u11:is,
12:u12:formula,,
12:u13:asserts,,
13:u14:disclosed,
8:u23:form,
7:uI1:,',,
12:u03:formula,,
12:u04:asserts,,
9:u00:novel,
9:u01:falls,
13:u03:disclosed,
8:u06:able,
11:u07:IN'978.,
12:u08:Reliance,
6:u10:is,
12:u11:formula,,
12:u12:asserts,,
13:u13:disclosed,
7:uI0:,',,
12:u02:formula,,
12:u03:asserts,,
8:u07:(ix),
9:u00:falls,
13:u02:disclosed,
8:u05:able,
11:u06:IN'978.,
12:u07:Reliance,
12:u10:formula,,
12:u11:asserts,,
13:u12:disclosed,
12:u01:formula,,
12:u02:asserts,,
8:u06:(ix),
13:u01:disclosed,
8:u04:able,
11:u05:IN'978.,
12:u06:Reliance,
15:u08:prosecution,
12:u10:asserts,,
13:u11:disclosed,
8:u14:(ix),
12:u00:formula,,
12:u01:asserts,,
8:u05:(ix),
13:u00:disclosed,
8:u03:able,
11:u04:IN'978.,
12:u05:Reliance,
15:u07:prosecution,
15:u08:declaration,
13:u10:disclosed,
8:u13:(ix),
12:u00:asserts,,
8:u04:(ix),
8:u02:able,
11:u03:IN'978.,
12:u04:Reliance,
15:u06:prosecution,
15:u07:declaration,
8:u12:(ix),
7:u22:(ix,
8:u23:(ix),
9:uI2:..(),,
8:u03:(ix),
8:u01:able,
11:u02:IN'978.,
12:u03:Reliance,
15:u05:prosecution,
15:u06:declaration,
8:u11:(ix),
9:uI1:..(),,
8:uI2:','.,
8:u02:(ix),
8:u00:able,
11:u01:IN'978.,
12:u02:Reliance,
15:u04:prosecution,
15:u05:declaration,
6:u08:10,
8:u10:(ix),
9:uI0:..(),,
8:uI1:','.,
8:u01:(ix),
11:u00:IN'978.,
12:u01:Reliance,
15:u03:prosecution,
15:u04:declaration,
6:u07:10,
8:uI0:','.,
6:uI2:',,
8:u00:(ix),
10:u08:-vis,
12:u00:Reliance,
15:u02:prosecution,
15:u03:declaration,
6:u06:10,
6:uI1:',,
7:u08:(x),
15:u01:prosecution,
15:u02:declaration,
6:u05:10,
9:u08:their,
6:uI0:',,
10:u07:-vis,
15:u00:prosecution,
15:u01:declaration,
6:u04:10,
9:u07:their,
6:u08:As,
10:u06:-vis,
7:u07:(x),
9:u08:human,
15:u00:declaration,
6:u03:10,
9:u06:their,
6:u07:As,
7:u08:not,
10:u14:-vis,
6:uI2:'-,
10:u05:-vis,
7:u06:(x),
14:u08:knowledge.,
6:u02:10,
9:u05:their,
6:u06:As,
7:u07:not,
16:u08:intervention,
10:u13:-vis,
7:u14:(x),
6:uI1:'-,
7:uI2:-'.,
10:u04:-vis,
7:u05:(x),
9:u07:human,
8:u08:(xi),
6:u01:10,
9:u04:their,
6:u05:As,
7:u06:not,
16:u07:intervention,
10:u12:-vis,
7:u13:(x),
9:u14:would,
6:u20:,
7:u21:-,
8:u22:-v,
9:u23:-vi,
6:uI0:'-,
7:uI1:-'.,
10:u03:-vis,
7:u04:(x),
9:u06:human,
14:u07:knowledge.,
14:u08:registered,
6:u00:10,
9:u03:their,
6:u04:As,
7:u05:not,
16:u06:intervention,
10:u11:-vis,
7:u12:(x),
9:u13:would,
9:u14:human,
6:u21:(x,
7:u22:(x),
7:u23:(x),
7:uI0:-'.,
10:u02:-vis,
7:u03:(x),
9:u05:human,
14:u06:knowledge.,
8:u07:(xi),
9:u02:their,
6:u03:As,
7:u04:not,
16:u05:intervention,
10:u10:-vis,
7:u11:(x),
9:u12:would,
9:u13:human,
14:u14:knowledge.,
6:u21:wo,
7:u22:wou,
8:u23:woul,
10:u01:-vis,
7:u02:(x),
9:u04:human,
14:u05:knowledge.,
8:u06:(xi),
14:u07:registered,
13:u08:technical,
9:u01:their,
6:u02:As,
7:u03:not,
16:u04:intervention,
7:u10:(x),
9:u11:would,
9:u12:human,
14:u13:knowledge.,
8:u14:(xi),
6:u21:hu,
7:u22:hum,
8:u23:huma,
10:u00:-vis,
7:u01:(x),
9:u03:human,
14:u04:knowledge.,
8:u05:(xi),
14:u06:registered,
14:u08:indigenous,
9:u00:their,
6:u01:As,
7:u02:not,
16:u03:intervention,
9:u10:would,
9:u11:human,
14:u12:knowledge.,
8:u13:(xi),
14:u14:registered,
5:u20:k,
6:u21:kn,
7:u22:kno,
8:u23:know,
7:u00:(x),
9:u02:human,
14:u03:knowledge.,
8:u04:(xi),
14:u05:registered,
13:u07:technical,
6:u00:As,
7:u01:not,
16:u02:intervention,
15:u08:manufacture,
9:u10:human,
14:u11:knowledge.,
8:u12:(xi),
14:u13:registered,
7:u22:(xi,
8:u23:(xi),
9:u01:human,
14:u02:knowledge.,
8:u03:(xi),
14:u04:registered,
13:u06:technical,
14:u07:indigenous,
7:u00:not,
16:u01:intervention,
15:u07:manufacture,
14:u10:knowledge.,
8:u11:(xi),
14:u12:registered,
13:u14:technical,
7:u22:reg,
8:u23:regi,
9:uI2:,,()",
9:u00:human,
14:u01:knowledge.,
8:u02:(xi),
14:u03:registered,
13:u05:technical,
14:u06:indigenous,
9:u08:brand,
16:u00:intervention,
15:u06:manufacture,
8:u10:(xi),
14:u11:registered,
13:u13:technical,
14:u14:indigenous,
9:uI1:,,()",
9:uI2:,()./,
14:u00:knowledge.,
8:u01:(xi),
14:u02:registered,
13:u04:technical,
14:u05:indigenous,
8:u08:name,
15:u05:manufacture,
14:u10:registered,
13:u12:technical,
14:u13:indigenous,
9:u14:under,
7:u22:tec,
8:u23:tech,
9:uI0:,,()",
9:uI1:,()./,
8:u00:(xi),
14:u01:registered,
13:u03:technical,
14:u04:indigenous,
9:u07:brand,
14:u08:CORAGEN,,
15:u04:manufacture,
13:u11:technical,
14:u12:indigenous,
9:u13:under,
7:u22:ind,
8:u23:indi,
9:uI0:,()./,
14:u00:registered,
13:u02:technical,
14:u03:indigenous,
9:u06:brand,
8:u07:name,
15:u03:manufacture,
13:u10:technical,
14:u11:indigenous,
9:u12:under,
9:u14:brand,
13:u01:technical,
14:u02:indigenous,
9:u05:brand,
8:u06:name,
14:u07:CORAGEN,,
15:u02:manufacture,
14:u10:indigenous,
9:u11:under,
9:u13:brand,
8:u14:name,
13:u00:technical,
14:u01:indigenous,
9:u04:brand,
8:u05:name,
14:u06:CORAGEN,,
23:u08:Chlorantraniliprole,
15:u01:manufacture,
9:u10:under,
9:u12:brand,
8:u13:name,
14:u14:coragen,,
6:u21:br,
7:u22:bra,
8:u23:bran,
14:u00:indigenous,
9:u03:brand,
8:u04:name,
14:u05:CORAGEN,,
15:u00:manufacture,
8:u08:0.4%,
9:u11:brand,
8:u12:name,
14:u13:coragen,,
6:u21:na,
7:u22:nam,
8:u23:name,
9:u02:brand,
8:u03:name,
14:u04:CORAGEN,,
23:u07:Chlorantraniliprole,
8:u07:0.4%,
12:u08:marketed,
9:u10:brand,
8:u11:name,
14:u12:coragen,,
9:u01:brand,
8:u02:name,
14:u03:CORAGEN,,
23:u06:Chlorantraniliprole,
16:u08:Registration,
8:u06:0.4%,
12:u07:marketed,
7:u08:"9.,
8:u10:name,
14:u11:coragen,,
23:u14:chlorantraniliprole,
9:u00:brand,
8:u01:name,
14:u02:CORAGEN,,
23:u05:Chlorantraniliprole,
8:u05:0.4%,
12:u06:marketed,
7:u07:"9.,
14:u10:coragen,,
23:u13:chlorantraniliprole,
8:u00:name,
14:u01:CORAGEN,,
23:u04:Chlorantraniliprole,
16:u07:Registration,
8:u04:0.4%,
12:u05:marketed,
7:u06:"9.,
23:u12:chlorantraniliprole,
7:u22:Chl,
8:u23:Chlo,
14:u00:CORAGEN,,
23:u03:Chlorantraniliprole,
16:u06:Registration,
6:u08:On,
8:u03:0.4%,
12:u04:marketed,
7:u05:"9.,
23:u11:chlorantraniliprole,
16:u14:registration,
23:u02:Chlorantraniliprole,
16:u05:Registration,
13:u08:Committee,
8:u02:0.4%,
12:u03:marketed,
7:u04:"9.,
11:u08:receipt,
23:u10:chlorantraniliprole,
16:u13:registration,
23:u01:Chlorantraniliprole,
16:u04:Registration,
6:u07:On,
15:u08:insecticide,
8:u01:0.4%,
12:u02:marketed,
7:u03:"9.,
11:u07:receipt,
8:u08:may,,
16:u12:registration,
7:u22:Reg,
8:u23:Regi,
23:u00:Chlorantraniliprole,
16:u03:Registration,
6:u06:On,
13:u07:Committee,
8:u00:0.4%,
12:u01:marketed,
7:u02:"9.,
11:u06:receipt,
8:u07:may,,
16:u11:registration,
16:u02:Registration,
6:u05:On,
13:u06:Committee,
15:u07:insecticide,
7:u08:its,
12:u00:marketed,
7:u01:"9.,
11:u05:receipt,
8:u06:may,,
16:u10:registration,
13:u14:committee,
16:u01:Registration,
6:u04:On,
13:u05:Committee,
15:u06:insecticide,
7:u00:"9.,
11:u04:receipt,
8:u05:may,,
10:u08:safety,
13:u13:committee,
15:u14:insecticide,
6:u21:On,
6:u22:On,
6:u23:On,
16:u00:Registration,
6:u03:On,
13:u04:Committee,
15:u05:insecticide,
7:u07:its,
16:u08:registration,
11:u03:receipt,
8:u04:may,,
10:u07:safety,
7:u08:it],
13:u12:committee,
15:u13:insecticide,
7:u22:Com,
8:u23:Comm,
6:u02:On,
13:u03:Committee,
15:u04:insecticide,
7:u06:its,
10:u08:period,
11:u02:receipt,
8:u03:may,,
10:u06:safety,
7:u07:it],
10:u08:number,
13:u11:committee,
15:u12:insecticide,
7:u14:its,
6:u01:On,
13:u02:Committee,
15:u03:insecticide,
7:u05:its,
16:u07:registration,
12:u08:Provided,
11:u01:receipt,
8:u02:may,,
10:u05:safety,
7:u06:it],
10:u07:number,
13:u10:committee,
15:u11:insecticide,
7:u13:its,
6:uI2:,[,
6:u00:On,
13:u01:Committee,
15:u02:insecticide,
7:u04:its,
16:u06:registration,
10:u07:period,
12:u08:decision,
11:u00:receipt,
8:u01:may,,
10:u04:safety,
7:u05:it],
10:u06:number,
15:u10:insecticide,
7:u12:its,
6:u21:it,
7:u22:its,
7:u23:its,
6:uI1:,[,
7:uI2:],,,
13:u00:Committee,
15:u01:insecticide,
7:u03:its,
16:u05:registration,
10:u06:period,
12:u07:Provided,
8:u00:may,,
10:u03:safety,
7:u04:it],
10:u05:number,
7:u11:its,
10:u14:period,
6:uI0:,[,
7:uI1:],,,
15:u00:insecticide,
7:u02:its,
16:u04:registration,
10:u05:period,
12:u06:Provided,
12:u07:decision,
10:u02:safety,
7:u03:it],
10:u04:number,
7:u10:its,
10:u13:period,
12:u14:provided,
7:uI0:],,,
7:u01:its,
16:u03:registration,
10:u04:period,
12:u05:Provided,
12:u06:decision,
10:u01:safety,
7:u02:it],
10:u03:number,
11:u08:further,
10:u12:period,
12:u13:provided,
12:u14:decision,
8:u23:peri,
7:u00:its,
16:u02:registration,
10:u03:period,
12:u04:Provided,
12:u05:decision,
10:u00:safety,
7:u01:it],
10:u02:number,
11:u07:further,
14:u08:sufficient,
10:u11:period,
12:u12:provided,
12:u13:decision,
8:u23:Prov,
16:u01:registration,
10:u02:period,
12:u03:Provided,
12:u04:decision,
11:u08:serious,
7:u00:it],
10:u01:number,
11:u06:further,
14:u07:sufficient,
10:u10:period,
12:u11:provided,
12:u12:decision,
7:u22:dec,
8:u23:deci,
16:u00:registration,
10:u01:period,
12:u02:Provided,
12:u03:decision,
10:u00:number,
11:u05:further,
14:u06:sufficient,
8:u08:risk,
12:u10:provided,
12:u11:decision,
9:u14:being,
10:u00:period,
12:u01:Provided,
12:u02:decision,
11:u07:serious,
11:u04:further,
14:u05:sufficient,
8:u07:risk,
12:u10:decision,
9:u13:being,
12:u00:Provided,
12:u01:decision,
11:u06:serious,
16:u08:FERTERRA.",
11:u03:further,
14:u04:sufficient,
8:u06:risk,
9:u12:being,
11:u14:serious,
7:u22:bei,
8:u23:bein,
12:u00:decision,
11:u05:serious,
7:u08:M/s,
11:u02:further,
14:u03:sufficient,
8:u05:risk,
9:u11:being,
11:u13:serious,
7:uI2:,.",
11:u04:serious,
16:u07:FERTERRA.",
11:u01:further,
14:u02:sufficient,
8:u04:risk,
9:u10:being,
11:u12:serious,
7:u22:ser,
8:u23:seri,
7:uI1:,.",
11:u03:serious,
16:u06:FERTERRA.",
7:u07:M/s,
12:u08:approved,
11:u00:further,
14:u01:sufficient,
8:u03:risk,
11:u11:serious,
16:u14:ferterra.",
7:uI0:,.",
11:u02:serious,
16:u05:FERTERRA.",
7:u06:M/s,
14:u00:sufficient,
8:u02:risk,
11:u10:serious,
16:u13:ferterra.",
7:u14:m/s,
11:u01:serious,
16:u04:FERTERRA.",
7:u05:M/s,
12:u07:approved,
9:u08:(xii),
8:u01:risk,
16:u12:ferterra.",
7:u13:m/s,
6:u21:FE,
7:u22:FER,
8:u23:FERT,
9:uI2:/..,.,
11:u00:serious,
16:u03:FERTERRA.",
7:u04:M/s,
12:u06:approved,
16:u08:manufacture,,
8:u00:risk,
16:u11:ferterra.",
7:u12:m/s,
12:u14:approved,
6:u21:M/,
7:u22:M/s,
7:u23:M/s,
9:uI1:/..,.,
16:u02:FERTERRA.",
7:u03:M/s,
12:u05:approved,
9:u07:(xii),
7:u08:can,
8:u08:use,,
16:u10:ferterra.",
7:u11:m/s,
12:u13:approved,
9:uI0:/..,.,
16:u01:FERTERRA.",
7:u02:M/s,
12:u04:approved,
9:u06:(xii),
16:u07:manufacture,,
9:u08:valid,
8:u07:use,,
7:u10:m/s,
12:u12:approved,
9:u14:(xii),
8:u23:appr,
16:u00:FERTERRA.",
7:u01:M/s,
12:u03:approved,
9:u05:(xii),
16:u06:manufacture,,
7:u07:can,
10:u08:(xiii),
8:u06:use,,
12:u11:approved,
9:u13:(xii),
16:u14:manufacture,,
7:u00:M/s,
12:u02:approved,
9:u04:(xii),
16:u05:manufacture,,
7:u06:can,
9:u07:valid,
12:u08:imminent,
8:u05:use,,
12:u10:approved,
9:u12:(xii),
16:u13:manufacture,,
7:u14:can,
8:u23:(xii,
12:u01:approved,
9:u03:(xii),
16:u04:manufacture,,
7:u05:can,
9:u06:valid,
10:u07:(xiii),
8:u04:use,,
11:u08:launch,,
9:u11:(xii),
16:u12:manufacture,,
7:u13:can,
9:u14:valid,
12:u00:approved,
9:u02:(xii),
16:u03:manufacture,,
7:u04:can,
9:u05:valid,
10:u06:(xiii),
12:u07:imminent,
8:u03:use,,
11:u07:launch,,
12:u08:infringe,
9:u10:(xii),
16:u11:manufacture,,
7:u12:can,
9:u13:valid,
10:u14:(xiii),
6:u21:ca,
7:u22:can,
7:u23:can,
9:u01:(xii),
16:u02:manufacture,,
7:u03:can,
9:u04:valid,
10:u05:(xiii),
12:u06:imminent,
18:u08:anthranilimide,
8:u02:use,,
11:u06:launch,,
12:u07:infringe,
16:u10:manufacture,,
7:u11:can,
9:u12:valid,
10:u13:(xiii),
12:u14:imminent,
6:u21:va,
7:u22:val,
8:u23:vali,
9:u00:(xii),
16:u01:manufacture,,
7:u02:can,
9:u03:valid,
10:u04:(xiii),
12:u05:imminent,
10:u08:before,
8:u01:use,,
11:u05:launch,,
12:u06:infringe,
16:u08:derivatives",
7:u10:can,
9:u11:valid,
10:u12:(xiii),
12:u13:imminent,
16:u00:manufacture,,
7:u01:can,
9:u02:valid,
10:u03:(xiii),
12:u04:imminent,
18:u07:anthranilimide,
12:u08:provides,
8:u00:use,,
11:u04:launch,,
12:u05:infringe,
16:u07:derivatives",
9:u10:valid,
10:u11:(xiii),
12:u12:imminent,
6:u21:im,
7:u22:imm,
8:u23:immi,
7:uI2:''.,
7:u00:can,
9:u01:valid,
10:u02:(xiii),
12:u03:imminent,
18:u06:anthranilimide,
10:u07:before,
11:u03:launch,,
12:u04:infringe,
16:u06:derivatives",
10:u10:(xiii),
12:u11:imminent,
18:u14:anthranilimide,
7:uI1:''.,
9:u00:valid,
10:u01:(xiii),
12:u02:imminent,
18:u05:anthranilimide,
10:u06:before,
12:u07:provides,
10:u08:result,
11:u02:launch,,
12:u03:infringe,
16:u05:derivatives",
12:u10:imminent,
18:u13:anthranilimide,
10:u14:before,
7:uI0:''.,
10:u00:(xiii),
12:u01:imminent,
18:u04:anthranilimide,
10:u05:before,
12:u06:provides,
17:u08:hereinbefore,,
11:u01:launch,,
12:u02:infringe,
16:u04:derivatives",
18:u12:anthranilimide,
10:u13:before,
12:u14:provides,
7:u22:ant,
8:u23:anth,
12:u00:imminent,
18:u03:anthranilimide,
10:u04:before,
12:u05:provides,
10:u07:result,
9:u08:(xiv),
11:u00:launch,,
12:u01:infringe,
16:u03:derivatives",
18:u11:anthranilimide,
10:u12:before,
12:u13:provides,
15:u14:manufacture,
7:u22:bef,
8:u23:befo,
18:u02:anthranilimide,
10:u03:before,
12:u04:provides,
10:u06:result,
17:u07:hereinbefore,,
12:u00:infringe,
16:u02:derivatives",
18:u10:anthranilimide,
10:u11:before,
12:u12:provides,
15:u13:manufacture,
10:u14:result,
8:u23:prov,
18:u01:anthranilimide,
10:u02:before,
12:u03:provides,
10:u05:result,
17:u06:hereinbefore,,
9:u07:(xiv),
8:u08:City,
16:u01:derivatives",
10:u10:before,
12:u11:provides,
15:u12:manufacture,
10:u13:result,
17:u14:hereinbefore,,
18:u00:anthranilimide,
10:u01:before,
12:u02:provides,
10:u04:result,
17:u05:hereinbefore,,
9:u06:(xiv),
16:u00:derivatives",
12:u10:provides,
15:u11:manufacture,
10:u12:result,
17:u13:hereinbefore,,
9:u14:(xiv),
7:u22:res,
8:u23:resu,
10:u00:before,
12:u01:provides,
10:u03:result,
17:u04:hereinbefore,,
9:u05:(xiv),
8:u07:City,
13:u08:asserted,,
15:u10:manufacture,
10:u11:result,
17:u12:hereinbefore,,
9:u13:(xiv),
6:u21:he,
7:u22:her,
8:u23:here,
12:u00:provides,
10:u02:result,
17:u03:hereinbefore,,
9:u04:(xiv),
8:u06:City,
13:u07:asserted,,
7:u08:law,
10:u10:result,
17:u11:hereinbefore,,
9:u12:(xiv),
8:u14:city,
8:u23:(xiv,
10:u01:result,
17:u02:hereinbefore,,
9:u03:(xiv),
8:u05:City,
13:u06:asserted,,
7:u07:law,
17:u10:hereinbefore,,
9:u11:(xiv),
8:u13:city,
11:uI2:,,("").,
10:u00:result,
17:u01:hereinbefore,,
9:u02:(xiv),
8:u04:City,
6:u08:6.,
13:u05:asserted,,
7:u06:law,
6:u08:12,
9:u10:(xiv),
8:u12:city,
7:u22:Cit,
8:u23:City,
11:uI1:,,("").,
17:u00:hereinbefore,,
9:u01:(xiv),
8:u03:City,
13:u04:asserted,,
7:u05:law,
6:u07:12,
8:u11:city,
11:uI0:,,("").,
9:u00:(xiv),
8:u02:City,
6:u07:6.,
17:u08:infringement,,
13:u03:asserted,,
7:u04:law,
6:u06:12,
11:u08:plaint,,
8:u10:city,
8:u01:City,
6:u06:6.,
13:u02:asserted,,
7:u03:law,
6:u05:12,
11:u07:plaint,,
6:u14:6.,
8:u00:City,
6:u05:6.,
17:u07:infringement,,
13:u01:asserted,,
7:u02:law,
6:u04:12,
11:u06:plaint,,
11:u08:present,
6:u13:6.,
6:u04:6.,
17:u06:infringement,,
8:u08:"17.,
13:u00:asserted,,
7:u01:law,
6:u03:12,
11:u05:plaint,,
11:u07:present,
10:u08:prayer,
6:u12:6.,
17:u14:infringement,,
6:u21:6.,
6:u22:6.,
6:u23:6.,
6:u03:6.,
17:u05:infringement,,
7:u00:law,
6:u02:12,
11:u04:plaint,,
11:u06:present,
10:u07:prayer,
6:u11:6.,
17:u13:infringement,,
9:uI2:,,''.,
6:u02:6.,
17:u04:infringement,,
8:u07:"17.,
6:u01:12,
11:u03:plaint,,
11:u05:present,
10:u06:prayer,
13:u08:following,
6:u10:6.,
17:u12:infringement,,
9:uI1:,,''.,
6:u01:6.,
17:u03:infringement,,
8:u06:"17.,
6:u00:12,
11:u02:plaint,,
11:u04:present,
10:u05:prayer,
13:u07:following,
17:u11:infringement,,
8:u14:"17.,
9:uI0:,,''.,
6:u00:6.,
17:u02:infringement,,
8:u05:"17.,
6:u08:An,
11:u01:plaint,,
11:u03:present,
10:u04:prayer,
13:u06:following,
17:u10:infringement,,
8:u13:"17.,
7:uI2:".,,
17:u01:infringement,,
8:u04:"17.,
15:u08:restraining,
11:u00:plaint,,
11:u02:present,
10:u03:prayer,
13:u05:following,
9:u08:order,
8:u12:"17.,
9:u14:court,
7:u22:"17,
8:u23:"17.,
7:uI1:".,,
17:u00:infringement,,
8:u03:"17.,
6:u07:An,
13:u08:officers,,
11:u01:present,
10:u02:prayer,
13:u04:following,
9:u07:order,
7:u08:all,
8:u11:"17.,
9:u13:court,
7:uI0:".,,
8:u02:"17.,
6:u06:An,
15:u07:restraining,
11:u00:present,
10:u01:prayer,
13:u03:following,
9:u06:order,
7:u07:all,
13:u08:servants,,
8:u10:"17.,
9:u12:court,
6:u14:an,
7:u22:Cou,
8:u23:Cour,
8:u01:"17.,
6:u05:An,
15:u06:restraining,
13:u07:officers,,
17:u08:distributing,,
10:u00:prayer,
13:u02:following,
9:u05:order,
7:u06:all,
13:u07:servants,,
9:u11:court,
6:u13:an,
15:u14:restraining,
8:u00:"17.,
6:u04:An,
15:u05:restraining,
13:u06:officers,,
13:u01:following,
9:u04:order,
7:u05:all,
13:u06:servants,,
16:u08:advertising,,
9:u10:court,
6:u12:an,
15:u13:restraining,
13:u14:officers,,
6:u21:An,
6:u22:An,
6:u23:An,
6:u03:An,
15:u04:restraining,
13:u05:officers,,
17:u07:distributing,,
13:u00:following,
9:u03:order,
7:u04:all,
13:u05:servants,,
16:u07:advertising,,
6:u11:an,
15:u12:restraining,
13:u13:officers,,
8:u23:rest,
6:u02:An,
15:u03:restraining,
13:u04:officers,,
17:u06:distributing,,
9:u02:order,
7:u03:all,
13:u04:servants,,
16:u06:advertising,,
6:u10:an,
15:u11:restraining,
13:u12:officers,,
17:u14:distributing,,
6:u01:An,
15:u02:restraining,
13:u03:officers,,
17:u05:distributing,,
9:u01:order,
7:u02:all,
13:u03:servants,,
16:u05:advertising,,
15:u10:restraining,
13:u11:officers,,
17:u13:distributing,,
8:uI2:,,,,,
6:u00:An,
15:u01:restraining,
13:u02:officers,,
17:u04:distributing,,
9:u00:order,
7:u01:all,
13:u02:servants,,
16:u04:advertising,,
13:u10:officers,,
17:u12:distributing,,
8:u23:dist,
8:uI1:,,,,,
15:u00:restraining,
13:u01:officers,,
17:u03:distributing,,
7:u00:all,
13:u01:servants,,
16:u03:advertising,,
17:u11:distributing,,
8:uI0:,,,,,
13:u00:officers,,
17:u02:distributing,,
13:u00:servants,,
16:u02:advertising,,
17:u10:distributing,,
17:u01:distributing,,
16:u01:advertising,,
14:u08:Defendant,,
17:u00:distributing,,
16:u00:advertising,,
14:u07:Defendant,,
14:u06:Defendant,,
14:u05:Defendant,,
13:u08:processes,
14:u04:Defendant,,
13:u07:processes,
8:u08:deem,
14:u03:Defendant,,
13:u06:processes,
7:u08:Any,
14:u02:Defendant,,
13:u05:processes,
7:u07:Any,
7:u08:fit,
6:uI2:.;,
8:u07:deem,
9:u08:Rival,
14:u01:Defendant,,
13:u04:processes,
7:u06:Any,
7:u07:fit,
10:u08:case.",
6:uI1:.;,
8:u06:deem,
6:u08:7.,
14:u00:Defendant,,
13:u03:processes,
7:u05:Any,
7:u06:fit,
10:u07:case.",
10:u08:Stands,
8:u14:deem,
6:uI0:.;,
9:uI2:()()',
8:u05:deem,
9:u07:Rival,
5:u08:A,
13:u02:processes,
7:u04:Any,
7:u05:fit,
10:u06:case.",
10:u07:Stands,
8:u13:deem,
9:uI1:()()',
8:u04:deem,
9:u06:Rival,
6:u07:7.,
14:u08:Arguments,,
13:u01:processes,
7:u03:Any,
7:u04:fit,
10:u05:case.",
10:u06:Stands,
12:u08:detailed,
8:u12:deem,
9:u14:rival,
7:u22:dee,
8:u23:deem,
9:uI0:()()',
8:u03:deem,
9:u05:Rival,
6:u06:7.,
5:u07:A,
13:u00:processes,
7:u02:Any,
7:u03:fit,
10:u04:case.",
10:u05:Stands,
12:u07:detailed,
8:u11:deem,
9:u13:rival,
6:u14:7.,
8:u02:deem,
9:u04:Rival,
6:u05:7.,
5:u06:A,
14:u07:Arguments,,
7:u01:Any,
7:u02:fit,
10:u03:case.",
10:u04:Stands,
12:u06:detailed,
13:u08:initially,
8:u10:deem,
9:u12:rival,
6:u13:7.,
6:u21:Ri,
7:u22:Riv,
8:u23:Riva,
8:u01:deem,
9:u03:Rival,
6:u04:7.,
5:u05:A,
14:u06:Arguments,,
7:u00:Any,
7:u01:fit,
10:u02:case.",
10:u03:Stands,
12:u05:detailed,
13:u07:initially,
9:u11:rival,
6:u12:7.,
14:u14:arguments,,
5:u20:7,
6:u21:7.,
6:u22:7.,
6:u23:7.,
8:u00:deem,
9:u02:Rival,
6:u03:7.,
5:u04:A,
14:u05:Arguments,,
7:u00:fit,
10:u01:case.",
10:u02:Stands,
12:u04:detailed,
13:u06:initially,
6:u08:13,
9:u10:rival,
6:u11:7.,
14:u13:arguments,,
5:u21:A,
5:u22:A,
5:u23:A,
9:u01:Rival,
6:u02:7.,
5:u03:A,
14:u04:Arguments,,
10:u08:Kumar.,
10:u00:case.",
10:u01:Stands,
12:u03:detailed,
13:u05:initially,
6:u07:13,
11:u08:Sandeep,
6:u10:7.,
14:u12:arguments,,
6:u21:Ar,
7:u22:Arg,
8:u23:Argu,
9:u00:Rival,
6:u01:7.,
5:u02:A,
14:u03:Arguments,,
10:u08:behalf,
10:u00:Stands,
12:u02:detailed,
13:u04:initially,
6:u06:13,
11:u07:Sandeep,
14:u11:arguments,,
6:u00:7.,
5:u01:A,
14:u02:Arguments,,
10:u07:Kumar.,
12:u01:detailed,
13:u03:initially,
6:u05:13,
11:u06:Sandeep,
14:u10:arguments,,
7:u14:mr.,
5:u00:A,
14:u01:Arguments,,
10:u06:Kumar.,
10:u07:behalf,
11:u08:Copious,
12:u00:detailed,
13:u02:initially,
6:u04:13,
11:u05:Sandeep,
7:u13:mr.,
10:u14:kumar.,
8:uI2:.,,.,
14:u00:Arguments,,
10:u05:Kumar.,
10:u06:behalf,
13:u01:initially,
6:u03:13,
11:u04:Sandeep,
11:u08:written,
7:u12:mr.,
10:u13:kumar.,
10:u14:behalf,
6:u21:Mr,
7:u22:Mr.,
7:u23:Mr.,
8:uI1:.,,.,
9:uI2:...,,,
10:u04:Kumar.,
10:u05:behalf,
11:u07:Copious,
8:u08:They,
13:u00:initially,
6:u02:13,
11:u03:Sandeep,
11:u07:written,
16:u08:accompanying,
7:u11:mr.,
10:u12:kumar.,
10:u13:behalf,
5:u20:K,
6:u21:Ku,
7:u22:Kum,
8:u23:Kuma,
8:uI0:.,,.,
9:uI1:...,,,
10:u03:Kumar.,
10:u04:behalf,
11:u06:Copious,
6:u01:13,
11:u02:Sandeep,
11:u06:written,
16:u07:accompanying,
7:u10:mr.,
10:u11:kumar.,
10:u12:behalf,
11:u14:copious,
7:u22:beh,
8:u23:beha,
9:uI0:...,,,
10:u02:Kumar.,
10:u03:behalf,
11:u05:Copious,
8:u07:They,
6:u00:13,
11:u01:Sandeep,
11:u05:written,
16:u06:accompanying,
7:u08:Bar,
10:u10:kumar.,
10:u11:behalf,
11:u13:copious,
10:u01:Kumar.,
10:u02:behalf,
11:u04:Copious,
8:u06:They,
16:u08:replication.,
11:u00:Sandeep,
11:u04:written,
16:u05:accompanying,
7:u07:Bar,
13:u08:necessary,
10:u10:behalf,
11:u12:copious,
8:u14:they,
7:u22:Cop,
8:u23:Copi,
10:u00:Kumar.,
10:u01:behalf,
11:u03:Copious,
8:u05:They,
11:u03:written,
16:u04:accompanying,
7:u06:Bar,
13:u07:necessary,
11:u11:copious,
8:u13:they,
10:u00:behalf,
11:u02:Copious,
8:u04:They,
16:u07:replication.,
15:u08:appropriate,
11:u02:written,
16:u03:accompanying,
7:u05:Bar,
13:u06:necessary,
9:u08:Given,
11:u10:copious,
8:u12:they,
7:u14:not,
8:u23:They,
11:u01:Copious,
8:u03:They,
16:u06:replication.,
11:u01:written,
16:u02:accompanying,
7:u04:Bar,
13:u05:necessary,
9:u07:Given,
8:u11:they,
7:u13:not,
16:u14:replication.,
11:u00:Copious,
8:u02:They,
16:u05:replication.,
15:u07:appropriate,
12:u08:thereto,,
11:u00:written,
16:u01:accompanying,
7:u03:Bar,
13:u04:necessary,
9:u06:Given,
13:u08:defendant,
8:u10:they,
7:u12:not,
16:u13:replication.,
6:u21:no,
7:u22:not,
7:u23:not,
8:u01:They,
16:u04:replication.,
15:u06:appropriate,
16:u00:accompanying,
7:u02:Bar,
13:u03:necessary,
9:u05:Given,
13:u07:defendant,
8:u08:side,
7:u11:not,
16:u12:replication.,
15:u14:appropriate,
7:u22:rep,
8:u23:repl,
8:u00:They,
16:u03:replication.,
15:u05:appropriate,
12:u07:thereto,,
7:u01:Bar,
13:u02:necessary,
9:u04:Given,
13:u06:defendant,
8:u07:side,
7:u10:not,
16:u11:replication.,
15:u13:appropriate,
16:u02:replication.,
15:u04:appropriate,
12:u06:thereto,,
7:u00:Bar,
13:u01:necessary,
9:u03:Given,
13:u05:defendant,
8:u06:side,
11:u08:permits,
16:u10:replication.,
15:u12:appropriate,
12:u14:thereto,,
16:u01:replication.,
15:u03:appropriate,
12:u05:thereto,,
15:u08:plaintiff's,
13:u00:necessary,
9:u02:Given,
13:u04:defendant,
8:u05:side,
11:u07:permits,
15:u11:appropriate,
12:u13:thereto,,
13:u14:defendant,
16:u00:replication.,
15:u02:appropriate,
12:u04:thereto,,
9:u01:Given,
13:u03:defendant,
8:u04:side,
11:u06:permits,
15:u10:appropriate,
12:u12:thereto,,
13:u13:defendant,
8:u23:ther,
15:u01:appropriate,
12:u03:thereto,,
15:u07:plaintiff's,
12:u08:products,
9:u00:Given,
13:u02:defendant,
8:u03:side,
11:u05:permits,
12:u11:thereto,,
13:u12:defendant,
7:u22:def,
8:u23:defe,
15:u00:appropriate,
12:u02:thereto,,
15:u06:plaintiff's,
13:u01:defendant,
8:u02:side,
11:u04:permits,
12:u10:thereto,,
13:u11:defendant,
15:u14:plaintiff's,
12:u01:thereto,,
15:u05:plaintiff's,
12:u07:products,
13:u00:defendant,
8:u01:side,
11:u03:permits,
13:u10:defendant,
15:u13:plaintiff's,
7:uI2:'.,,
12:u00:thereto,,
15:u04:plaintiff's,
12:u06:products,
10:u08:Patent,
8:u00:side,
11:u02:permits,
15:u12:plaintiff's,
12:u14:products,
7:uI1:'.,,
15:u03:plaintiff's,
12:u05:products,
11:u08:nature.,
11:u01:permits,
10:u08:rights,
15:u11:plaintiff's,
12:u13:products,
7:uI0:'.,,
8:uI2:,',,,
15:u02:plaintiff's,
12:u04:products,
10:u07:Patent,
11:u00:permits,
10:u07:rights,
10:u08:Unlike,
15:u10:plaintiff's,
12:u12:products,
8:u23:prod,
8:uI1:,',,,
7:uI2:',.,
15:u01:plaintiff's,
12:u03:products,
10:u06:Patent,
11:u07:nature.,
10:u06:rights,
10:u07:Unlike,
9:u08:"107.,
12:u11:products,
10:u14:patent,
8:uI0:,',,,
7:uI1:',.,
15:u00:plaintiff's,
12:u02:products,
10:u05:Patent,
11:u06:nature.,
10:u05:rights,
10:u06:Unlike,
9:u07:"107.,
12:u10:products,
10:u13:patent,
11:u14:nature.,
7:uI0:',.,
12:u01:products,
10:u04:Patent,
11:u05:nature.,
11:u08:revoked,
10:u04:rights,
10:u05:Unlike,
9:u06:"107.,
10:u12:patent,
11:u13:nature.,
5:u14:7,
7:u22:Pat,
8:u23:Pate,
12:u00:products,
10:u03:Patent,
11:u04:nature.,
10:u03:rights,
10:u04:Unlike,
9:u05:"107.,
10:u11:patent,
11:u12:nature.,
5:u13:7,
7:u22:nat,
8:u23:natu,
11:uI2:".,.,.-,
10:u02:Patent,
11:u03:nature.,
11:u07:revoked,
10:u02:rights,
10:u03:Unlike,
9:u04:"107.,
10:u10:patent,
11:u11:nature.,
5:u12:7,
5:u21:7,
5:u22:7,
5:u23:7,
11:uI1:".,.,.-,
10:u01:Patent,
11:u02:nature.,
11:u06:revoked,
10:u01:rights,
10:u02:Unlike,
9:u03:"107.,
6:u08:14,
11:u10:nature.,
5:u11:7,
11:u14:revoked,
11:uI0:".,.,.-,
10:u00:Patent,
11:u01:nature.,
11:u05:revoked,
10:u00:rights,
10:u01:Unlike,
9:u02:"107.,
6:u07:14,
10:u08:common,
5:u10:7,
11:u13:revoked,
11:u00:nature.,
11:u04:revoked,
10:u00:Unlike,
9:u01:"107.,
6:u06:14,
10:u07:common,
11:u12:revoked,
7:u22:rev,
8:u23:revo,
11:u03:revoked,
11:u08:grounds,
9:u00:"107.,
6:u05:14,
10:u06:common,
11:u08:Patents,
11:u11:revoked,
8:u14:from,
11:u02:revoked,
6:u04:14,
10:u05:common,
11:u07:Patents,
11:u10:revoked,
8:u13:from,
10:u14:rights,
11:u01:revoked,
11:u07:grounds,
6:u03:14,
10:u04:common,
11:u06:Patents,
14:u08:enumerated,
8:u12:from,
10:u13:rights,
6:u21:fr,
7:u22:fro,
8:u23:from,
11:u00:revoked,
11:u06:grounds,
14:u08:reproduced,
6:u02:14,
10:u03:common,
11:u05:Patents,
14:u07:enumerated,
9:u08:case,,
8:u11:from,
10:u12:rights,
11:u14:grounds,
6:u21:ri,
7:u22:rig,
8:u23:righ,
11:u05:grounds,
8:u08:"64.,
6:u01:14,
10:u02:common,
11:u04:Patents,
14:u06:enumerated,
9:u07:case,,
8:u10:from,
10:u11:rights,
11:u13:grounds,
11:u04:grounds,
14:u07:reproduced,
6:u00:14,
10:u01:common,
11:u03:Patents,
14:u05:enumerated,
9:u06:case,,
14:u08:Revocation,
10:u10:rights,
11:u12:grounds,
11:u14:present,
11:u03:grounds,
14:u06:reproduced,
8:u07:"64.,
11:u08:Subject,
10:u00:common,
11:u02:Patents,
14:u04:enumerated,
9:u05:case,,
14:u07:Revocation,
11:u11:grounds,
11:u13:present,
14:u14:reproduced,
